solver_type L2R_LR
nr_class 2
label 1 0
nr_feature 8000
bias -1.0000000000000000
w
-0.081520014520150240 
-0.16169329225903348 
-0.16210865866250676 
-0.12528162415904934 
0.0044519072524954320 
0.0080189800604830350 
-0.091428888810898030 
-0.13311162687098370 
0.10429646878733309 
0.26275879659769950 
-0.021305924142743966 
-0.10083676928713639 
-0.054798036836212066 
-0.086401492639261680 
0.21498773173017016 
0.24360683019834709 
0.051918051207034480 
-0.16790418940355994 
0.058792143037848390 
-0.086584915649778190 
-0.083855909817358380 
0.037277678183070530 
-0.013588678056613812 
0.049392281140420820 
-0.10015559963037370 
-0.042062849663397996 
0.037712216418832240 
-0.093122067014518380 
0.077335017593087780 
-0.073056684080923470 
-0.069791342433126120 
-0.071503758267189830 
-0.037107844262541684 
-0.10384079484228112 
-0.00084387633620212160 
-0.096984960995286750 
0.079909227859982800 
-0.0049483127268614530 
-0.010977147128302698 
-0.11420590881611320 
0.069590694527563880 
0.0059345156780815375 
0.034050074164981084 
0.077722923265515530 
-0.0015275726702927090 
-0.25705271247062433 
-0.074211239449973210 
-0.23444670863101186 
0.12212191794219929 
-0.063228192625936060 
0.019184922408029180 
-0.052596248701145350 
-0.21639458255711413 
-0.24157876513740417 
-0.040835401901877930 
-0.12518919321055110 
0.010026915215331307 
-0.17845710773463020 
-0.0063073897369658550 
-0.14486590128674634 
0.12646577172621930 
0.0090907251016172710 
-0.17338432861813755 
-0.038138323479849910 
-0.13432216109026765 
-0.078862247897742590 
0.050989967557512346 
-0.0034440245400746590 
-0.32267356192111670 
0.14600586122177944 
0.00038331616940250057 
-0.031501897533620093 
-0.094541120010301680 
-0.012712774185166626 
-0.21194698926603853 
0.19724976276506750 
-0.25680144165736540 
0.14326454187926896 
0.059540572815418400 
-0.086284314561098210 
-0.051756894479196736 
-0.0073844224732692000 
-0.090492533848874440 
0.058311549981913120 
-0.040440855347387894 
-0.16708782000689618 
0.17313244209012050 
0.035709953866932424 
0.015001960038355820 
0.077237969142636310 
-0.16077273235845300 
0.11060861416517317 
-0.093719904869639870 
-0.026562971596940730 
-0.039388846051719080 
-0.031548592524145300 
-0.043446033434398160 
-0.14043947202789628 
0.022061839137509667 
-0.019862481919536770 
-0.19948563683702197 
0.12719038592604837 
-0.31821234585649455 
-0.16479962744797289 
-0.16242665769857118 
0.11356613538948791 
-0.096020423130622990 
-0.16007588140078188 
0.015401572564275766 
-0.26547115428526870 
-0.12973071322749144 
-0.047269914985942210 
0.019016438984609835 
0.051119088935856010 
0.16665064670451213 
0.052640621150136890 
0.0022830601052447573 
-0.10861791281251251 
-0.0047191955318156885 
-0.020822154422787308 
-0.067582124170399220 
-0.031112713016777035 
0.014497706038030429 
0.085012229481564880 
0.23585477856491174 
-0.0024669811525394670 
-0.12070016624535708 
-0.10136025681668046 
0.040327201548704110 
-0.085024200596104330 
-0.044706694243970356 
-0.094159522299426190 
-0.089714735797651870 
-0.035102989721716105 
0.098649877219480430 
-0.070114748469145810 
0.068422847331985090 
-0.12141065518040448 
0.017534310097855880 
-0.018236238293256945 
-0.038860074447082150 
0.036050157946706920 
0.010914927490822526 
-0.0021696645646508425 
-0.11276791404131200 
-0.075978674837462480 
-0.16982704648448957 
-0.12920391604924597 
0.093448017405664900 
-0.060239007135308590 
0.11147400391053565 
0.16585658334330874 
-0.051534142200362495 
0.16380064980438397 
-0.11631765870303191 
-0.20326309842812730 
0.021436343859514706 
-0.25309609239506000 
0.076436974760685090 
-0.086302627274274260 
0.13687368329147720 
0.0033090487128817970 
-0.0091381804391417970 
-0.079721592875862250 
0.17696346679984803 
0.058381961823621990 
-0.095934917031712170 
0.14835718279112206 
-0.065943833519891800 
-0.13553115699305487 
-0.074990874657967800 
-0.10724972028098571 
0.057849424065319700 
0.046376310578471740 
0.10626045898675263 
0.32048999806744893 
-0.061403594427546670 
-0.17646457852668960 
0.072899952051543410 
0.030527000837611416 
0.16079631782251635 
0.038145561427200590 
-0.11458128701571922 
0.19043207735046258 
0.0099109853941525970 
-0.20917806511067139 
0.26199391336579353 
-0.093567715901296630 
-0.024266326456978266 
-0.090554428708436880 
0.031800191206546750 
-0.031097898913091858 
0.023839830404388680 
0.041533263299966550 
0.20265408169063606 
-0.20021514976225624 
0.13298661230866743 
-0.18602398909195560 
-0.054791963297547810 
0.033858357151955960 
-0.0012609556427452158 
0 
0.17319774770593450 
-0.024044162345172863 
-0.028181952294486820 
0.034288852848928300 
-0.18775767492957202 
-0.031760962826872210 
-0.16372199915731800 
0.038020358314752270 
-0.029759703965956258 
0.068372509406347880 
-0.046853082024910130 
0.036306402200228330 
-0.035344900198389530 
-0.14172174816265020 
0.069193233095368610 
-0.090407964097203450 
-0.020481477931825025 
0.0082966135519140920 
-0.10546333596553747 
0.031200318472343207 
-0.12074517289820937 
-0.019000788896728887 
-0.11256677553410324 
-0.16507469006171283 
-0.058389071582143355 
0.067631938445527980 
0.16539899540360214 
0.058813085841612730 
-0.063810720255491190 
-0.11072823597147840 
-0.15209581666434882 
-0.0039318590631659190 
-0.024451372902427992 
-0.21680946495860423 
-0.21877822791941207 
0.15390045096590527 
0.021416952663411750 
-0.097761850845089160 
0.15169574619319265 
0.021567839468955440 
-0.021894519056532898 
-0.060840001133282175 
-0.060241392625756690 
-0.058237738691429120 
0.018311256633900990 
-0.16829582867340365 
-0.0048862646205897154 
0.090209892250568600 
-0.0052469384288218130 
0.11967893850489658 
-0.041115205843832850 
-0.12512570173425847 
-0.023401133078693250 
0.062371404206789290 
0.095632547194649800 
-0.068539941427784500 
-0.0039360279510188400 
0.0091157818037534840 
-0.24664868933220896 
-0.020068919437013624 
0.082792306350475480 
-0.060365684895135630 
-0.079915220518670850 
-0.10546730511544593 
-0.12026696379691013 
-0.0053552139992627330 
0.017200909637763696 
0.099647118540912070 
0.015859943262920003 
0.082585228145381980 
0.19979689563103684 
0.041071067608026840 
0.38633105386889460 
0.11253422047205637 
-0.058430940199642500 
-0.087529243815145200 
-0.073678301263344210 
-0.11762344801071385 
0.053241220369480290 
-0.099709227770845230 
0.055164353932577270 
-0.10607594679266652 
0.13553258151174840 
0.026993788705579426 
-0.0045560864042103215 
0.074709434308931940 
0.14265525926135520 
0.17038949073646434 
0.10029168537587128 
0.13509066184920607 
0.061770966401029170 
-0.082287334134663300 
0.22222297885277476 
-0.0071838093441205190 
0.098629409665344180 
-0.060245949535218994 
0.015608612076241212 
-0.10320635136614245 
0.022807221744154976 
-0.15340721627368065 
0.023013656278426196 
0.10925737457696878 
0.084740698395425710 
0.034019464060526120 
-0.0086314035789965830 
-0.019091967750077453 
0.17263539074676376 
-0.21295156795412168 
0.13693205290775828 
-0.030953726141465222 
0.12018636482076281 
0.0065725510561330310 
0.049606038332278720 
0.026518320435262616 
0.066621291199976960 
-0.24616414431168804 
-0.099903424296832770 
0.035739861003934920 
0.10575043934022181 
-0.062589971898250010 
0.026903441381308124 
-0.085597079172479830 
-0.21798420691722330 
-0.061030375180433180 
0.087934597184020800 
0.059460265823836260 
-0.0093793485251203210 
-0.24982947216092527 
-0.049116565010433835 
-0.12639274893806118 
-0.079077273518781060 
-0.18760094345969447 
0.048596411169148125 
-0.16222370285322250 
0.035028248042291600 
0.077540490221392270 
-0.041350230181037576 
0.083698771428094340 
-0.26453775663012800 
-0.10198078014330156 
-0.34745744653896843 
0.23973542262779945 
-0.12861876055104673 
-0.084807999769585970 
-0.0056190195723700490 
-0.19594957306426620 
-0.34258309539178483 
0.17360661344269710 
0.019614260566290127 
-0.030301055369320440 
0.11174793076280501 
0.028150168532713873 
0.067232692552281230 
-0.063823500598328610 
0.014598683331381007 
-0.18209057453683275 
0.081740350507517920 
-0.033731906904888020 
-0.089471295704520100 
-0.074554765825506840 
0.042121348374464136 
0.075012185109112740 
-0.028158171919663664 
-0.074315708247611690 
0.0079178538844020370 
-0.045142464430917170 
0.026751791786453833 
-0.10506791210038458 
-0.0020565408330176350 
-0.0083021376444143400 
0.046805947064286604 
0.042378765556029940 
-0.024039560634171700 
-0.077697890121536510 
-0.041624719061867640 
0.053173688095043796 
0.0075696972183703420 
0.0065571841048447400 
-0.039028762879300460 
0.13656979224719326 
-0.056080148312460520 
0.0077820517107249880 
0.070367246794918930 
0.015949669705145350 
-0.047203678818635596 
-0.024326957965933663 
0.077201410663159930 
-0.12873025795743420 
0.051076300264977900 
-0.079548426871800010 
-0.039000573739196240 
0.097902680266558500 
-0.020209520413055120 
0.11283807327017287 
0.0084563844908993780 
-0.13334636805952190 
0.031333176648235275 
0.089214195907535430 
0.040034810961679110 
0.088375726837250050 
-0.060270878186732710 
0.013803817983843034 
0.020949664999959216 
0.030989495095459164 
0.015726066821865003 
-0.049315136978349560 
-0.010762173221091534 
0.13561452028672740 
0.023895614091213610 
-0.018077141072773747 
-0.077162786223676870 
0.039284816255643805 
-0.053669001663552596 
-0.028714844725312584 
-0.12677412654131490 
-0.054630427228388220 
0.0074655314394407035 
0.064048065604715170 
0.068957936063063650 
0.060287317245897996 
-0.042048828757332770 
-0.062818852344407360 
0.0076360910228735380 
0.092262393490298150 
-0.0064691114432632825 
0.031539623085203854 
-0.026473741454603225 
0.016750218997878930 
-0.021749333656919653 
0 
-0.088588581638425650 
-0.021114152051812694 
0.035612877542998654 
-0.052636276688211886 
0.063130099903499590 
-0.071880116735433970 
0 
-0.012291232545230079 
-0.10170141300611653 
0.030547483960522850 
0.016993251760430810 
-0.028653899934531567 
-0.020552397833418440 
-0.075402708160596270 
-0.033833860166603400 
-0.052514631714300035 
-0.053129945317553560 
0.052825770311181160 
-0.050754229912250730 
-0.026776863562189130 
-0.083194825152936270 
0.057328053403864290 
0.019702501777109620 
-0.067973658944771430 
-0.037112740006596576 
-0.078482580916233210 
0.017716005143594345 
0.029323908649408130 
0.033578007453036810 
-0.020167374596999420 
0.037873312867635040 
0.025781868233407900 
0.029489816712086370 
-0.062607544759300300 
0.028241984021467804 
-0.031461422888904830 
0.051621140181188886 
0.017951326571762830 
-0.023060573690462376 
-0.012817480873033260 
-0.098122227018419500 
-0.030390352665268135 
-0.019797349876519668 
0.029331347768136007 
0.076849853093966150 
0.061742600503581340 
-0.10097433725281134 
0.060237873820976090 
0.035672739827372820 
0.012086126759111243 
0.0078961479252317120 
0.0097633542315174060 
0.067284404421944720 
0.015961729717746464 
0.011151634978167275 
-0.093382372158473890 
0.0014882948174100900 
-0.067390799628346760 
0.033892226658078470 
0.034489131081515856 
-0.078807024586338000 
0.0031719754817809410 
-0.048089966247511250 
-0.10500685509185086 
-0.057006103483569030 
-0.056924559613316610 
0.018245945943222220 
-0.020857206488664230 
0.19479708046767702 
0.11875125620933467 
-0.016229170249126502 
-0.047978555549075715 
-0.075671565039622930 
-0.16005450198583288 
0.019813955619450166 
-0.0042800485644918630 
-0.099393673549300600 
-0.0063946970032443574 
-0.0096546950188269830 
-0.088835935723879270 
0.0079716565970837910 
-0.030976033296015990 
-0.23113404606700960 
-0.097727567681991660 
-0.050653601070087030 
-0.037420138467411684 
-0.0042697973752459970 
0.023210874328215635 
-0.024243889972487255 
0.022558413391752925 
-0.042778296379958340 
0.066784320174003300 
-0.096398249430591190 
0.043204454692098285 
-0.025660332677327820 
-0.057909491555216894 
0.091634957074091990 
0.064738741983426260 
0.0045678440154057354 
0.022496072341759276 
0.027706390052744653 
0.013487161047562318 
-0.10643599635638225 
-0.016960826671218353 
0.017207112750033567 
0.052411961192328340 
0.011862559053436625 
0.012950706813129131 
0.013583213586032608 
-0.016191620457914820 
-0.034555953043331960 
0.070051472299638030 
-0.089559874577145830 
-0.024604954548467370 
-0.00021398382959289183 
-0.030518510279130412 
-0.099896947794005130 
0.017113623550826875 
-0.050540611203895020 
-0.0034430819492037370 
-0.026178187659868384 
0.11396902076891781 
-0.052529481016224280 
-0.042569617763701430 
-0.010584644601570216 
-0.021152296705951480 
-0.081630772730147880 
0.048805372297922510 
-0.11926869509056946 
0.050605077094433400 
0.018769234399299724 
-0.017873394741017925 
0.070553603812460260 
-0.13559865239558830 
0.024272511696060270 
-0.018670977096986452 
0.14464440871973850 
0.048583526552336930 
0.039312680865300216 
-0.030465241213978582 
0.11260366622309925 
-0.13114097462963753 
0.014611747048526523 
-0.031152052551377220 
0.077421374010676540 
0.12874999303520285 
-0.015573174229899019 
0.050427052537905690 
-0.14648929498471447 
0.043714788869893675 
-0.038800872058566596 
-0.010027888126382604 
0.048146361270252100 
-0.094315133335392450 
-0.14556847710479942 
0.11911410908867262 
-0.014177111278658071 
-0.037418418644450900 
-0.00087001348323327210 
-0.045340940855195450 
-0.083012110208993490 
0.10970929344269571 
0.13936595574026472 
-0.035915974502524636 
-0.12842032612131488 
0.026680480674992162 
-0.017060401657632937 
0.088772402908682520 
0.015656622037187654 
-0.0024677427575125080 
-0.0014538606497876967 
-0.051664977954150950 
0.012192526377418389 
0.038948114660053230 
-0.00075385804366023570 
-0.011981368475798868 
0.044621013870080040 
-0.030818045475238470 
-0.052309169735692930 
0.014439245290792624 
-0.014647241242401243 
0.027775375580134754 
0.044249793770502770 
-0.0053726567510115330 
0.0034340179436588550 
-0.013554679970210120 
-0.024986776552840820 
-0.022896269912485855 
-0.055433774101398140 
-0.044730768571268356 
-0.083516950874794100 
-0.086984364246625080 
0.014978616154388853 
-0.23725082408840018 
0.026195277165398833 
0.020131151467779693 
-0.029782987043231485 
0.017878346844696690 
-0.061529042248139550 
-0.032573349042378734 
-0.013990311957230894 
-0.046708564311544506 
-0.0056045958766782340 
0.11416180775903403 
0.034413789024022395 
-0.019474030723296343 
-0.059363687886001576 
0.015269627384223834 
-0.067432976055708530 
0.020628657627610035 
0.074454345051443580 
-0.070197398203582670 
-0.014206354645427808 
-0.085493446512294600 
0.045036660938393785 
-0.0061135543883618715 
0.015796300075656567 
-0.088976412905728390 
-0.036463464827746150 
0.00093721570712015380 
0.019872970100609560 
-0.020968931349790096 
-0.11888380144556562 
-0.012197854077425269 
-0.048486505693456270 
0.083745540293072210 
0.033586970965034240 
-0.0040750236298379980 
-0.010072254097465271 
-0.061348193496727280 
-0.053449581814748160 
-0.083536415191497830 
-0.010848960817745768 
-0.070497087921897640 
-0.018320748586431818 
-0.014249901182041920 
0.023569659975620272 
-0.0028941698694259860 
0.019944090935924072 
-0.037852633332629550 
0.0014517275613994615 
0.043817749726318780 
-0.013241693552163713 
-0.079869715874007110 
-0.045171057572912045 
-0.069544290260023540 
-0.041056124230074466 
0.049634658136484510 
-0.12599792798984033 
-0.0055485504336366155 
-0.034380357535783610 
-0.019000056933762410 
-0.011620254970963210 
-0.18079249186042004 
-0.072230353364521080 
-0.063802925164326520 
0.0072651871431248655 
-0.00072870022625558030 
0.052538255338356530 
-0.11489758440334598 
0.16820010934305551 
-0.032395845620533340 
0.13992777303605200 
0.041124422511641764 
-0.070480956421390450 
0.026342318912168240 
0.0048575834508761450 
-0.0017644617590222285 
-0.16651432324947815 
-0.064432158102573270 
-0.015361861048882826 
-0.13283528765692357 
0.081238306170534300 
-0.094237606079820960 
0.033565430427383510 
-0.028557964910307175 
-0.12025011336301442 
0.026846185059610075 
0.036862493713359160 
0.093203249947590730 
-0.010568673190850838 
-0.026597131101816910 
-0.085026889001800650 
-0.028176894879565418 
-0.15046179457604417 
0.056560410142566980 
-0.047157844780033700 
-0.043952300616461180 
0.20066711103981080 
0.067088080628548320 
0.034487039573867770 
0.19343015692010862 
-0.030922161732326942 
-0.047975088712439840 
0.0017274094753585040 
-0.0080004121646639400 
0.048118594801003610 
0.059054106094058890 
-0.011240927716895437 
0.071788504349806780 
0.087622367822967600 
-0.094009650017261440 
-0.021688415156160296 
0.069901129284059770 
0.11020169042057845 
-0.042066008175889100 
0 
-0.089020967181675650 
0.11420666489036707 
0.057418186214408036 
0.13032636793600177 
0.077674024003335940 
-0.045415515067023650 
-0.10075279515068647 
-0.077707434753783390 
-0.032371213678096360 
0.0080329763732701980 
-0.063081781495889280 
-0.019703566100858994 
-0.018906263489287370 
-0.060142038101269370 
0.024625535977042500 
-0.11871001686352753 
0.013546268278006724 
-0.17402573738346375 
-0.12241230210079810 
-0.085369766574700050 
0.044390046849544895 
0.037665896441072080 
-0.024166571976516317 
-0.041963186997551160 
0.042400075620396376 
0.00081253682913663720 
-0.062171613645420835 
-0.0047606376670790650 
0.033686369958431190 
0 
-0.0050623758133109010 
0 
0.019112520248682516 
0 
-0.010393479546509266 
0.016002446432294000 
-0.039563286721230080 
-0.072555469198243630 
-0.035869153557795660 
-0.041893606561366340 
0 
-0.064576189665715350 
0.031709464942318670 
-0.017044630999716842 
-0.13158572808551858 
0.0066079663726588420 
-0.15948558384000996 
0.0072945743422950820 
-0.088272452503536640 
-0.040557959561556785 
0.014159663466724806 
0 
0.051518147209809316 
-0.051283902560030174 
-0.00048387415966626440 
0.041509798550961000 
-0.14281753176563870 
-0.015193486480762713 
0.027505526748128187 
0.015728097165731383 
-0.012880339067326356 
-0.011532820503699548 
-0.13010371557635816 
-0.20002996470192214 
0.12090162845051397 
-0.14366273920422898 
-0.26515987547536024 
-0.20876817840737558 
0.087525300992358750 
0.072403322089811550 
0.19939623909663234 
-0.11412451621461082 
-0.15769455150949604 
0.10126068328485269 
-0.046140005768527455 
-0.031267848975075466 
0.069708749576196130 
-0.0046835427883821990 
-0.085878722540910220 
-0.015090993944503377 
0.076478025489234320 
-0.080843039674682110 
-0.12786073646593918 
-0.075902153314924140 
0.039424267240389930 
0.0011883206364583635 
-0.065024768987154220 
0.030553539467108058 
-0.019916171737159663 
0.040637349061259535 
-0.010211224462321485 
-0.017447766696649557 
-0.064730640898405760 
-0.058369720174898235 
-0.061586062375718670 
-0.042762305547036830 
0.0021057591543741875 
0.055966837019785845 
0.0065485471273776660 
-0.0039336458962009930 
-0.022213011523609806 
-0.013208438117108947 
0.012199784441593146 
0.11906048720456418 
-0.040052170759669100 
0.13057275027108803 
-0.055982629215182740 
-0.042030735200321120 
0.049531630339733570 
-0.065755619880362670 
-0.19154013106413226 
0.12420571222378360 
0.0069322576097104630 
0.0090149488847646210 
-0.044465475681724445 
-0.10330124459062479 
-0.17896601412785860 
0.0050865485297203510 
0.041228911101491230 
-0.069985009983538900 
-0.11247555935931906 
-0.035401391302097730 
0.023686935979768536 
0.23081886910506652 
0.11884684669211205 
-0.089183604803181920 
0.19029315214493870 
0.046981760942290854 
-0.20898090701596944 
0.17452431077274191 
0.047752451224192215 
0.13766771920869875 
-0.15662916936175258 
-0.19344700906564080 
-0.072941994837201110 
-0.13156162499305393 
0.13110003964011840 
0.033513964455942756 
0.073015952134425400 
-0.15504343226786887 
-0.0045211834209665180 
-0.10017895044976863 
-0.0047141838611246100 
0.12716918524107457 
-0.12450085004690507 
0.051448284736204420 
0.0039414004729943990 
-0.066037032099809350 
0.047691697769730670 
-0.13423072922831517 
-0.13233141847275862 
0.076074573674173470 
-0.13908920199693960 
0.025496407390780407 
0.016743489392524430 
-0.052641948623513420 
-0.11160437334705947 
-0.058480484487669070 
-0.022805480514262153 
-0.087654655798431260 
-0.010002092644025885 
0.018445629834297164 
-0.010416689734315865 
-0.32294846564164970 
-0.12498489657680341 
0.030645128002377644 
-0.032864924989243540 
0.076233706617387710 
-0.028055244644326510 
0.078647272936840580 
0.12129887464987262 
0.090888809010216650 
-0.091657398170536160 
-0.21108131719233714 
-0.083435786176251480 
-0.22939806006534433 
0.22773401489704514 
-0.032972581176319140 
-0.22236856931107846 
0.086996441147807360 
0.10966715263057800 
-0.18918623295946854 
-0.044816268089684480 
0.0066169374237169070 
-0.020337943580802643 
0.15948945795063427 
0.016859024708841583 
0.026308581134337438 
-0.020182510781803255 
0.054224079739857940 
-0.069002431491756720 
-0.039964812257060770 
0.062022546067106730 
-0.038737154641675300 
0.058199681645687040 
-0.021204194807175662 
0.013807907787024290 
0.050740172860017780 
-0.10875073836620760 
0.023221140376640800 
0.00062569765760900170 
-0.19494319437654195 
-0.16296081542519275 
-0.086857865990350920 
-0.047164178511491660 
0.14072551534153066 
0.13112191505288210 
-0.15053374621306131 
0.029862752312029242 
0.073287745027890230 
-0.21273528997099640 
0.083779009606572900 
-0.039505413423251890 
-0.030793170953662227 
0.062687234644604380 
0.13626536945157824 
0.028716239864031450 
0.011763881127805501 
0.24260474178940997 
-0.023037759554207848 
0.011416017619489820 
-0.10999748977111720 
-0.049975488940181080 
-0.0060466875028189180 
-0.18068368067928892 
0.017389625292838985 
0.055150259530732014 
5.7234991129519140e-05 
-0.12689631865017503 
-0.0058946421291315840 
0.34112167835777040 
-0.039841082891946570 
0.26014324560346436 
0.052217781743823770 
0.11520945254470938 
0.14452834336945510 
0.028624177870716652 
-0.063454994474327580 
-0.19351745571793583 
-0.038738089199824834 
-0.15248192885826880 
-0.11504117092395907 
0.064908335534185540 
-0.13605704611062030 
-0.059088105703948940 
0.093796167812906700 
0.22082275789906680 
0.00093315850381035970 
0.13981812186686987 
-0.054427507113815960 
0.089586565783656050 
-0.051406452131879260 
-0.14250613447798970 
-0.00096599377608847130 
-0.051965544461338410 
-0.088548542749407670 
0.041651879071378240 
-0.094190878747166020 
-0.0041691225281242150 
0.018044436820284560 
0.066896608063001990 
-0.012335411055697618 
-0.0034624563237224180 
0.015636392816344786 
0.0044983360585183460 
-0.073606296257353320 
0.0093477706131749050 
-0.0029389193288822200 
-0.082931477573948180 
-0.047898959819662350 
0.054903644183030060 
0.022555158431274685 
-0.0047927468734209740 
0.00043877405914480650 
-0.021840138367962267 
-0.0017522341577886902 
-0.15636746762212322 
-0.019238794300945855 
0.028935960810113190 
-0.0067111833817990340 
-0.040698715466365870 
-0.17932296037304712 
-0.078394547891066660 
0.11630961896628202 
-0.061381073436030400 
0.10882864650697074 
0.012015731882876517 
-0.054836684921178720 
-0.22754821533922226 
0.12962924103794700 
-0.27867696303344797 
-0.073350262383624150 
-0.23586547924775558 
-0.17776004622573052 
0.0042258386135178610 
-0.015639190792764060 
-0.26185998293553920 
-0.12284842141125776 
0.029172232233043962 
0.021467454546512630 
-0.0078087218457847400 
-0.14123501769535624 
-0.035794712606967660 
-0.037592495778375620 
-0.022755850213762786 
0.084591104703742150 
-0.079668264257308410 
0.093054623733411070 
-0.19106843615327354 
0.044315224339398790 
0.15578241584374725 
-0.040062272808445820 
0.040744083502890320 
-0.16310973121042435 
0.075665561874196260 
-0.11768158126282313 
0.023388325983709154 
-0.082663100612645760 
-0.044388002573384930 
-0.021802742842225154 
0.011802762585812210 
-0.10454697167507611 
0.11347246703695396 
-0.12773123660751530 
0.10766396664461882 
0.0035565600423201460 
-0.052122892382622760 
0.065314345186169030 
-0.0029658964334508860 
0.097007202607117040 
-0.13589180369115084 
-0.052815079626223620 
0.11043163535795883 
-0.023231094182238798 
0.097428937481763720 
-0.026652430256953484 
0.087394143567370690 
0.010407896854235190 
-0.074526397151173850 
0.065406819692910010 
0.0031262732676649026 
0.12716803036660380 
-0.11084175223090217 
0.090672958528866930 
-0.037823531058882780 
-0.0086020640804525200 
0.026832321870904230 
-8.4403006018274680e-05 
0.0044984724754964850 
-0.064175772589390790 
0.044724994392312060 
-0.032597594593992680 
0.077897646211264530 
-0.14373751266216710 
0.032484244670203470 
0.065488134157996920 
0.15598596102621207 
-0.043261083288997460 
-0.14021505905642484 
0.046169794896163754 
-0.0058991050420434690 
-0.057603502478149910 
0.040349617128889174 
0.15392161096685275 
-0.069915215714122240 
-0.028268781879987070 
-0.034178482859077010 
-0.033464571964205145 
0.063388169279187140 
0.17594767849919474 
0.0050414422573429700 
0.027937410500443766 
-0.087741435470874750 
-0.0096067393507091180 
-0.089025534530980250 
-0.11866892799594358 
0.019224678093433298 
0.11881503788080239 
-0.0034417030508261740 
-0.10072508623564316 
-0.17034226954087670 
-0.036808191866729500 
0.045893906224546400 
0.17397998499566728 
0.0077016799885840630 
0.0082255522614074730 
-0.16820774946723482 
-0.10572924653757898 
-0.010363866891656640 
0.046277269091276975 
-0.090710598452027090 
0.046611802857864790 
-0.070870320103868100 
-0.026542168971409444 
0.013201961630582229 
-0.12395015685962807 
-0.18524618346071290 
-0.075561305331238410 
-0.17802747637307492 
-0.064714387225466600 
-0.21999592927705030 
0.10137244491072630 
0.016424308264027140 
-0.072025133324738000 
0.20562504331602360 
-0.19817813647921810 
-0.099065361889707830 
0.042363915301657860 
0.024006608202625430 
0.056532946025528310 
0.11356528217589026 
-0.013402870643920045 
-0.068112962109107640 
-0.16213282454619707 
0.085221868968191120 
-0.069923636713621300 
0.032882661710784196 
-0.055581315410227650 
-0.31527062851311727 
0.021724230532105978 
0.048005491522714230 
-0.10205597428591762 
-0.024024127031795628 
0.057761054883188770 
0.0074383283371772490 
-0.074958878071150540 
-0.15662294146553588 
-0.10460508664501623 
0.023248254132815700 
-0.10064135898966892 
0.0010640488739731037 
-0.039042379799789910 
-0.11491831517127263 
0.0060828232323605120 
-0.048566816733877710 
-0.080855967980641490 
-0.047669188839122620 
0.050859506305912315 
0.096455067943616550 
-0.018424019341081600 
-0.013809004938441834 
0.078200578376699610 
-0.069867914226673280 
0.11365187541444890 
0.024987438085711860 
-0.071867209048630630 
0.18410151976025865 
0.016985907216543600 
-0.0020079890397227070 
-0.031395677974233135 
0.062920466264160470 
-0.069364439499632570 
-0.10384168631112130 
0.043963292238952560 
-0.055452671927948165 
-0.055630178597311376 
-0.086923303078475250 
-0.010954026157561160 
-0.11119608297837448 
0.033463694122503040 
-0.027702334989367874 
-0.21808114120036834 
-0.083362234141239720 
0.057136491569753630 
-0.34525056248455954 
-0.063286941922819990 
0.17865046100098295 
-0.10165170093151670 
-0.035148398873722680 
0.045871227151115260 
0.41065797818701390 
0.099646956125116730 
-0.043606698578308000 
0.10280929673033046 
0.067066438131277880 
-0.31907934141668570 
-0.23315178698180844 
0.035555332478744670 
-0.30117891370299316 
-0.054980346606321576 
-0.011239841320606665 
0.13151492965671450 
0.036765131642753114 
0.068430526298901420 
0.031717123749340980 
0.043550362069048750 
-0.11442293677031516 
-0.014023275327562259 
0.023143251929660498 
-0.033096960188934760 
-0.079838505134323600 
0.0095634858744969820 
0.084080827628091200 
0.050278562502986430 
-0.091325723332677600 
-0.066430109489453850 
-0.10443158251293130 
-0.051001213753232990 
0.086914514495554930 
-0.0075404132766236360 
-0.019745883596981168 
0.26898128854315410 
-0.085780198500128290 
-0.015358981776123423 
-0.20805983571639850 
-0.13373044507234470 
-0.033527865083680226 
0.023202962548547784 
0.23652936209214480 
-0.036017193159939300 
-0.11593913775013404 
0.11446364426117417 
0.0092555410502455000 
-0.14299618241358447 
0.0065654127303127120 
0.058974575702436076 
-0.078554299501995760 
-0.11232502999663257 
-0.037651178028204380 
-0.0084856530149517840 
0.032976273779486060 
-0.059825310817358440 
0.063438950088209460 
0.039937608586967974 
-0.16767613359247116 
-0.024980828331106774 
-0.034516052763378960 
-0.0016644330829940560 
-0.29964586499252926 
0.14041772268225455 
0.062766754121157550 
-0.057946465975887070 
0.13279983790349330 
-0.061182963155172465 
0.038357109867056594 
0.21465361314243123 
-0.050931160909960575 
-0.11020847156871771 
0.056608102060907440 
0.017857017461502207 
-0.25313351115359810 
-0.082205255056890250 
-0.083732107782060720 
0.027926282374896640 
-0.23886974774412728 
0.090113793723113890 
0.0066920811168832560 
-0.091823863584157130 
0.058783509821183810 
-0.092805373793207470 
0.058563761296627570 
-0.022616708053345110 
0.017393237679368505 
0.15912067602045190 
0.052138590450479450 
-0.045151596915707520 
-0.042542234289475340 
-0.038258620127279694 
0.017143834961198600 
0.046714702001141560 
0.080807781067849040 
0.024618817909442692 
0.055055924780133360 
-0.072708873347158710 
-0.019836575781027526 
-0.098016618165679600 
0.015962796661819937 
-0.14516804337201060 
-0.10199120230389835 
-0.22465053618527836 
0.18513152936558610 
0.17578888671014448 
0.24784143332539835 
-0.066362382989738900 
0.0067461992848577820 
-0.065051191108527530 
-0.060021555549267250 
-0.050575279327315974 
0.043884298005333440 
0.036541964327967580 
-0.013449493351615893 
-0.024922540122253214 
0.021752670190636522 
-0.0074433982096510760 
-0.073035845277134190 
0.052217640729251080 
-0.015383853707562907 
-0.054423185121214930 
0.0015179044334149606 
0.094173192756183970 
-0.14247373511152822 
0.073995395381767220 
-0.091744516787355150 
0.032772162968332460 
0.024935655717189826 
0.065140341155754800 
0.060229281005085150 
0.0050984517755312190 
0.16837997138963412 
-0.054445626481686230 
-0.0014880336339888386 
0.10609729359817782 
-0.12999529295902510 
0.078543283648121490 
-0.075964621236559560 
-0.044400798648651040 
0.12359414865594458 
0.054689560753054970 
-0.028213250318601432 
0.062033513935799416 
-0.11694515090628195 
0.12155635834168067 
-0.17107487441780630 
-0.081118301555770640 
-0.033320763069990580 
0.041562457368901170 
-0.072476922869726540 
-0.088537896044926280 
-0.22253300369809428 
0.037105083597629760 
0.24247355775525004 
0.017081825421187892 
-0.053477020158086065 
0.014963374050175258 
-0.11029914242112850 
-0.20718403957663228 
-0.27879385290611336 
0.14294122305718640 
0.15769949373884576 
0.25349301088192860 
0.23988416830039180 
0.11123684210684560 
0.28399942902607955 
0.049839759684704620 
-0.073993800162973860 
0.13324932314858606 
-0.017557792871488027 
0.13924657608676433 
0.015088807384552585 
-0.054583896919286880 
-0.049261178142924196 
-0.23372562261274010 
0.14439837059399450 
0.047190223700068940 
0.046865122650908610 
0.035651487819203576 
-0.055835786298905830 
0.098732675194481520 
0.23201912918078520 
0.22870661246297666 
0.084751373075706240 
0.0049019201916675696 
-0.10468636269726318 
0.35582608186865766 
0.22498016773957585 
0.14479515039418006 
0.10173761053848860 
0.020163952181275100 
-0.21519621105585807 
-0.017005951804484430 
-0.12497820947285486 
0.18614833932131777 
0.018164845309697884 
0.12956394536629168 
-0.050768672848847180 
-0.026837398818333053 
-0.0021812763546096570 
-0.13307992610307230 
-0.13752201114539753 
-0.13827058259444633 
0.32235760843726596 
-0.058833103311598155 
0.076257426451733900 
0.099878741854508120 
0.021290972732284426 
0.032105994857776110 
0.020758134877563977 
-0.14836310146560575 
-0.098011341222881130 
-0.0047245611325505510 
0.061947555403718580 
-0.17340162766587014 
0.10269789407333439 
-0.16823385819067013 
-0.013819658951144374 
-0.18166657563749838 
-0.057154608345237830 
-0.053147074737928000 
0.074970183136740990 
0.0064959977791043230 
0.14606928661521300 
0.083092460857402600 
0.019095442778643500 
-0.087820443216645210 
0.14458807563470313 
-0.088882330515062570 
0.032539879692539825 
-0.050950643175479010 
-0.084751140109470410 
0.059430858520393770 
-0.14616425619171053 
0.10135305801637343 
0.039509676594593940 
0.014510308737591810 
0.033952022683558680 
-0.30678625719660146 
-0.14703328961949330 
-0.059758377352341470 
-0.35582662168123874 
-0.090279390859712080 
0.031071260093283662 
-0.059762606300819600 
0.065742486371634280 
0.0033368779034384900 
0.092892634927762560 
0.012679686179161900 
-0.021250949968650252 
-0.15022865274792893 
0.070199550664768450 
0.047313138336877524 
-0.13093139753988756 
-0.00098690322082976840 
0.14589417699794688 
0.022044528207928703 
0.057956945870153410 
-0.22817728235918092 
-0.20048835143743965 
0.011215427396580700 
-0.19206041010029254 
-0.10908283545790144 
-0.036649500931262416 
0.060932170618246270 
0.0059673602091465640 
0.20793664992439495 
-0.26921915236410460 
0.051954925289766925 
0.18235408892421862 
0.094698465710166960 
0.13338341278661103 
0.0054076174569833640 
-0.060335162755236740 
0.16864534528070702 
-0.074809812564383250 
-0.056832715968081480 
0.055458131760307526 
0.15040712249173227 
0.19753822492667966 
-0.047295441950694750 
0.053462218478027260 
0.16487620790327680 
0.17607262604087520 
0.033412260599021526 
-0.069970159236447320 
-0.0076754297412678120 
-0.053277720916452850 
0.040897724487362064 
0.19299720791475564 
0.14753472405226267 
-0.076536249881959850 
-0.041993000143778280 
-0.051706738663650630 
-0.030167186488438143 
0.036024516399832396 
-0.13165155837281390 
-0.10037230818081333 
-0.14061202659477995 
-0.045032043331191620 
-0.059831040416511000 
0.13337736779395537 
0.17694013778414733 
0.030077814716521850 
0.051736918284028294 
-0.018221105066259210 
0.11093138492014948 
-0.0085780494556968020 
0.15004407533567150 
0.15141630438519890 
-0.20816006400525650 
0.17080611713754915 
0.0014534596869213365 
-0.079632310443227870 
-0.23080151963564188 
-0.019855391421081184 
-0.092884269000780660 
-0.070206074627594830 
0.082034670797169820 
-0.15679299370333810 
0.0064116309354655200 
-0.056816997158432670 
0.069627145056637200 
0.067648931925511820 
0.13844877271161277 
0.040103888813928440 
0.10633221655315143 
-0.061977637288673600 
0.018375563869970996 
-0.26668248148398310 
0.16144044372702990 
-0.052229552790716345 
0.036856757071349056 
-0.047937070694840080 
0.20808186071486878 
-0.015780732073859870 
0.022043453666140150 
0.057849071465390830 
-0.25438773645187185 
0.069225142483689440 
0.043983351750033620 
-0.020776784322940563 
0.12051415504484647 
0.063683060936575160 
0.23786023115804666 
-0.21144737448506856 
0.015203895851965365 
0.27725835516360040 
0.062909950520001990 
0.033808043376595605 
0.014435557395523286 
-0.011256326737583311 
-0.017924762327255418 
-0.097765607069086820 
-0.016560878293396267 
-0.094734297187143060 
-0.12362894404924135 
0.047468806443686846 
0.033506645548848090 
-0.016248495737800114 
-0.039730040879168010 
0.047966589977200030 
0.013695230982377054 
0.069907959233336840 
-0.022419135290898790 
-0.10824669427506903 
0.079393187505145400 
-0.010251060849363818 
0.021649277425646290 
-0.030629170886853800 
0.036264419441293120 
-0.11870816280179528 
0 
-0.035823956923709900 
0.022064913553993138 
-0.053993542356641645 
-0.23438281420699142 
-0.082327455485228780 
-0.17085182360027723 
-0.0010144244956528155 
0.097917428189151220 
-0.12072882127504493 
-0.089492671172320280 
0.0023326499253576870 
-0.057644859477184285 
-0.064510051131996790 
0.12947955896231647 
-0.16266630695859094 
0.0017233262844920565 
0.079887347758011440 
0.083207077060571600 
-0.054978833426965210 
0.088303969560678710 
0.046384914976233570 
-0.062016913408877855 
0.045058612065984674 
0.064180059903375750 
-0.17953636297153866 
-0.046284505659273015 
-0.091592257112982040 
-0.092631581953484170 
-0.072481386325594770 
-0.037733001891986970 
-0.15060795931213480 
-0.11040026935708656 
-0.081843146278878300 
-0.040140967956315860 
-0.11807270757056748 
0.11160058108467746 
-0.039445577358371620 
0.010613604228792760 
-0.14105840161893457 
-0.011907629322748175 
-0.068705246410987310 
0.084243638388203130 
-0.0087528167981146540 
-0.038697005647497000 
-0.061851566438312175 
-0.027157052604027534 
-0.0014994340756702244 
0 
0.011910055163503954 
-0.049055010925912766 
-0.012683949314208227 
-0.026384065569263104 
-0.017430827128011785 
-0.069637931889170350 
0.030572261107643165 
-0.047712631745168904 
-0.14537390538128284 
0.037434666399193316 
-0.018029266752382887 
-0.0011404410226442250 
-0.030472167646069068 
-0.020730497012642440 
-0.025620702869033302 
0.026816209753648786 
-0.069877742261511290 
0.088889613021273320 
0.029514189629693332 
0.15446953282854614 
-0.10164128997765436 
0.10509785562957280 
0.0078202115682789120 
-0.095485115981643280 
-0.054033835999811444 
0.24396920657858207 
0.00010890756186234841 
-0.090828258504767860 
-0.20084763865877878 
0.099825209507941780 
0.035485475876256730 
0.0083172957684991730 
-0.040118870254424795 
-0.13080826210283342 
-0.00052073801438828160 
-0.050537687937830485 
-0.0074228010064462320 
-0.11170460461796000 
-0.13650927731808082 
-0.036021581044033830 
0.11731077508196011 
0.21829619122290295 
-0.10360819526780869 
0.10021506643743316 
0.071069014079185160 
0.023858620363079170 
0.0040584255297949415 
0.069998715120451870 
0.18587385122506428 
-0.16192400643864427 
-0.067123510488794100 
0.015570571253867925 
-0.0040945687054768190 
-0.0024811273133479130 
0.037030743749003530 
0.042556623130872905 
0.071210359821833340 
-0.069958510929373750 
-0.029976533375309436 
0.0084022346566977380 
0.0040294147185421500 
0.072290462011054840 
-0.072307027998361330 
-0.025273863307469918 
-0.051732610651891400 
-0.041084289589122934 
0.029943324018467575 
0.090273538667278010 
-0.036837386248954114 
0.064932595969593610 
-0.038517252645001940 
0.026072577916983280 
0.22941907029234568 
-0.20038071606975600 
0.028146381421244990 
0.041757724879182216 
0.015062112580318070 
-0.060509127940683624 
-0.060717925429100440 
0.048494257059046454 
-0.083120406603593200 
-0.078342723280161770 
-0.034701161592569606 
-0.023525064227694250 
0.024989224779902650 
-0.11730841528071191 
-0.18439482180909403 
0.044202595535962880 
0.097136199005917340 
0.036441766077226420 
-0.34023806788576800 
-0.023996504653264614 
-0.0019188270558588415 
-0.063299232658448890 
-0.061376430800034300 
0.021586749764560244 
-0.10419582627252391 
-0.14626579312735430 
0.021084128191895610 
0.028708106704071024 
0.032634408814673020 
0.080347282335997210 
-0.030672383105169582 
-0.042878110678772810 
0.13878922637161253 
-0.061355583609475820 
-0.015743736441067337 
0.029621990181795270 
-0.12321044434071010 
0.054163881611039424 
-0.037772690038177480 
0.023976449215546620 
0.016626560580390340 
-0.15558210429714028 
0.052552442765306950 
0.090443279843966340 
0.13864641265462976 
-0.011553391783411056 
-0.0089296305673529550 
0.0077786205485765860 
0.12914800018174120 
-0.048416120218799830 
0.13380820400926755 
0.090592310042554460 
-0.15459199858081220 
0.0091349797562892530 
-0.083148055435984930 
0.0042512102985783800 
0.067122667871191100 
-0.060674974918721290 
0.024004710030606936 
-0.010204880247331075 
-0.062987507759575190 
0.040932729682319990 
-0.058002052658610030 
-0.025166542438301510 
0.014824094933784608 
0.022484855941159242 
0.065771696868939190 
-0.054938405626273036 
-0.0085543900975463380 
-0.10746204178158195 
0.031655598091713950 
0.027975484590977588 
-0.019934051082560033 
-0.14593791513364307 
0.22854391120650985 
-0.064787915312253850 
-0.20195757031289957 
0.016242016914568820 
0.029208288201297394 
-0.057401892004968040 
0.080766507076129220 
-0.014616020659389562 
-0.010085293514270744 
0.093317557596741580 
0.096736602154204300 
0.068624679962033720 
-0.15425133261522370 
-0.082292804470191060 
0.023609452418446270 
0.027029549105298714 
-0.049119410751803630 
0.022930536891187854 
-0.020573718448610213 
-0.083873890898661760 
0.098609250095920480 
0.20513520558547200 
-0.025852207881920747 
0.060226954424720170 
-0.012013950612601238 
-0.025189165227538703 
0.021308936747663185 
-0.034978002616928600 
0.020562929507763318 
-0.045809713112318560 
0.074645422063735380 
-0.098780372422822370 
-0.058279202313854470 
0.026652111085873840 
0.095618846109957690 
0.034163841145445774 
-0.051476641940356320 
0.022404872391020660 
-0.055490795344699510 
-0.015328529648757881 
-0.018665814045859912 
0.076065883715914160 
-0.083706237473391760 
0.053475635251624645 
-0.025500032052536740 
0 
0.016903463631207392 
0.18511137745942102 
-0.066477874876571180 
0.028689900650440670 
-0.15409187879190814 
0.10279522908026327 
-0.0026261640214603676 
-0.0022107799500540176 
-0.10833810478709299 
0.0033488150744370934 
-0.037976318384804836 
0.0077929381567168300 
-0.11445854992297841 
-0.021062280186517783 
-0.10650192905959914 
-0.032297514126312840 
-0.083927995175562130 
-0.070702952709617280 
0.023364357801540118 
-0.025948249145102454 
-0.012424580680561300 
-0.094763765207539720 
-0.094154823100249850 
-0.021813441291121456 
0.16168786347577300 
-0.10574117289932505 
-0.14931717661372900 
0.035759076319624230 
0.0056621494639633885 
0.14038037673561873 
-0.22864504184996606 
-0.030235279851016567 
-0.052353701207188010 
0.00080596768803307610 
0.010978887373530408 
-0.18467269167728675 
0.015025401319570680 
0.021436929305546536 
-0.099491617672100130 
-0.036624115506686115 
0.091047126788891610 
0.097203351383469890 
0.067721245371615830 
0.13252120384673866 
0.093431407384487630 
-0.033466811526436110 
0.056794333967354950 
0.13161383217487040 
-0.089047105061477350 
-0.076067939486278450 
-0.021066932898726933 
-0.045355351836086910 
0.021469050134335940 
0.050925549684152950 
0.10143352609348210 
-0.012769816449227672 
0.0056987644928936570 
-0.022116561572519417 
0.048311844298288484 
0.034297520483618046 
0.060299950107558320 
0.024198401014697245 
-0.015663149558325692 
-0.031027081064534584 
-0.069036476839968690 
-0.015797789757196284 
0.0029832240101895207 
-0.021582108006835878 
-0.092529847450820670 
-0.23999400849800412 
-0.012371285706391873 
-0.051589435086838234 
0.12418428333395434 
0.047735135464399030 
0.027075743920878670 
0.040048071708432220 
-0.071104973453807400 
0.043872972168830090 
-0.13519892253403840 
-0.073320099552104300 
0.056807134099594200 
-0.17681606756762780 
-0.0010564197331215603 
0.038262063421736570 
-0.030662372809096637 
0.076673951696585670 
-0.039088202654134400 
-0.088858311541026550 
-0.12537646767708455 
0.12989208560745885 
0.21070670993651627 
-0.062536767781632740 
0.12282827048485304 
-0.070866291443952470 
0.0094440501116465020 
0.10286501875000781 
0.012677753991302818 
-0.0033357211718201690 
-0.097077344150028110 
-0.038726144973577930 
-0.090724845522543100 
-0.080251641733255860 
0.0062162387311727690 
-0.13112671892611405 
-0.21713543001187008 
-0.044771372765263230 
-0.11232546973345522 
0.014091602239113270 
-0.049178835176116270 
-0.027524602013021364 
0.11191613349008715 
-0.037889210683724200 
-0.0085051218304233500 
-0.069782921709028880 
-0.0026285131122623633 
0.081283039780201250 
-0.017509921669150470 
0.11437262026571329 
-0.15521457532698096 
-0.032843013292268464 
0.061661649808055406 
-0.0091706790552213700 
-0.056571085349804505 
0.13177946237759780 
-0.0028173906277383680 
-0.013675702932136269 
-0.0036364295421043790 
-0.072214197220144260 
-0.0058908812427860520 
0.048297180554680320 
-0.17092451971822392 
-0.21871116225957976 
-0.11792434546641212 
0.10915817348616723 
0.060958870568232640 
-0.052624672331427580 
0.069784837273621380 
-0.027849003903939074 
0.079921409228169110 
-0.041362452040140380 
-0.0023432882381057545 
0.035809474225850534 
0.0086057034782760050 
0.042225435200360616 
-0.021598104823930230 
-0.015567354544782460 
-0.026322242509448576 
0.018871063782504740 
0.054658970996690780 
0.054523844077331254 
0.047576123331058665 
0.0035950471699252600 
0.021421592538968897 
-0.022630090602475478 
0.076352919163869400 
0.099733897641743550 
-0.011516361888562587 
0.00083923348887587080 
0.067732040790837460 
0.034017041935168190 
-0.039838606383783640 
0.055489294199780735 
-0.058092508041616114 
0.12174149493650782 
0.14836383595309377 
-0.075257346884551730 
-0.10877430145015062 
0.014726532547779825 
0.0011473471838421919 
0.31501088849331350 
-0.062132490827790730 
-0.0066626663157426690 
-0.068718144490891490 
0.065719084223235480 
-0.028599956608288680 
0.097956844951988950 
0.073861926438919800 
0.034423809430820386 
0.084760800201375820 
-0.0065529901228739220 
0.066732026188164480 
0.31289392838896696 
0.15150281959996734 
-0.25201173688354430 
-0.13454610880800724 
-0.16769454537497133 
-0.10680316788690022 
-0.047755734454834484 
-0.31588278888816484 
0.092514375356917670 
-0.094089600508284330 
-0.0024437195928424770 
-0.039611164995545950 
0.0089719098084476980 
-0.10530074174957792 
-0.22406471982277593 
0.034112618138988540 
-0.26243981526718820 
-0.27831814535388110 
-0.019451357361189615 
-0.027567176784424517 
0.0031610073860026122 
0.11543278739272624 
-0.068018163625893720 
0.030394988394655306 
-0.067203441522913010 
0.066476707160298650 
-0.038409441892539440 
-0.026205284908153120 
0.10465233811882581 
0.048825605417151766 
0.046167108322050730 
-0.032262283687910690 
0.021137241598180530 
-0.064678625771574930 
0.063682901708534430 
-0.27907443741602510 
0.18653241103911344 
-0.057902283505967530 
-0.10486884734891397 
-0.15010366908528164 
-0.22641007212465580 
-0.16803708118588964 
-0.27210934414950200 
-0.024281027768383277 
0.17849176623029842 
0.055206344972471250 
-0.069429316764854780 
-0.34111958937394526 
-0.012808876362095116 
-0.28235602500742900 
-0.075582976353917970 
-0.064834688061576800 
-0.080354711158860250 
-0.034608289354922050 
-0.080003573198790980 
0.048391780077705280 
-0.081108035337350450 
-0.28345684025262896 
-0.10902412446223375 
0.037222254825410590 
-0.20752138334682088 
0.022671770755851122 
-0.26854490267738096 
-0.037032555867403740 
-0.060058718425491020 
-0.17918218006446230 
0.011700681541857983 
-0.10855888241149042 
0.049384930528523400 
-0.15001976644746676 
0.10914054186314566 
0.10313643759170286 
-0.26722593713807140 
-0.14126996027587008 
0.12550153581225500 
-0.13060530464524178 
0.13997295257940462 
0.054355934972877840 
0.0054972212789219460 
-0.026088764208669330 
-0.011799443523661874 
0.030785282236523114 
-0.10472464674133265 
0.13993753405208834 
-0.018782959165751102 
-0.00078411348767661250 
0.011789812227967520 
-0.071470805910142930 
-0.060773616567678726 
0.021641064126573996 
-0.015382816021233684 
-0.066889729220550280 
-0.037227709111623535 
0.080514733467783680 
-0.19825871024178354 
0.12347621322245284 
0.040169701423942010 
-0.10343921109998643 
-0.045676514203202750 
-0.053852587992147050 
-0.010966132936982140 
-0.069229412707713500 
-0.15901998609193818 
-0.19771762869303922 
0.13065774307815678 
0.18821341713585257 
-0.066023377661307090 
-0.17712347135671058 
0.031487447624341296 
-0.0044744038895533360 
-0.051339132530765040 
-0.16388891632076930 
-0.12701699032302627 
0.10273515951570263 
-0.15532240419315224 
-0.082386485111364120 
-0.033031726025266150 
-0.089671873272767240 
-0.070370468893188490 
-0.044158589260170585 
-0.036891522494638010 
-0.070918278370631440 
-0.13959476527943090 
0.021810022406951412 
0.12363840231157011 
0.067612990711616470 
0.0070017341102444730 
0.076967136739145900 
-0.17679610021516834 
0.083707911518284920 
0.0014936029624626323 
-0.035288773192642040 
-0.10637250000262798 
0.10725788585767375 
-0.069788689276853800 
-0.10221604425523069 
-0.070183114040405530 
-0.19749764433481282 
-0.058750457202292550 
0.030029798122705533 
-0.23178826354204962 
-0.0026015709799612660 
-0.022744577999104513 
-0.044056515931019540 
-0.091381646441210770 
-0.048392735057451950 
-0.10586635556436129 
-0.0083596401553979370 
0.053185154044606540 
0.039464238913127230 
-0.12639664885122048 
-0.046894928983606270 
-0.11944055804151162 
-0.092461556064265700 
0.073217578415435830 
-0.087897473979087720 
0.0071609732087516020 
-0.20339129807393674 
-0.0044614947095820414 
-0.15448749926177785 
0.023275472827205247 
-0.33373286606801020 
-0.033187592330086690 
0.10307845964417332 
-0.062913355892765500 
0.082559760920243570 
-0.045294097008870285 
-0.15848542693686450 
-0.18838621513523990 
-0.24506534222931342 
0.055716849315181500 
0.079233789569365390 
0.084395131831555540 
-0.056611614517501410 
0.14415074568127292 
-0.24856631570675872 
0.11669674686616291 
-0.14818951837721595 
0.12129402142024792 
-0.15961691412936052 
0.23655755146544974 
-0.055845302489490890 
-0.26938160270935350 
0.042747133632651360 
0.049884715529655820 
-0.33012949134179403 
0.0097772939913389180 
-0.082674327334554850 
0.012971986781971496 
0.040096492145074230 
0.031301497946251380 
-0.13961986002469234 
-0.092271131496284370 
0.060149760569201640 
0.18587117217261548 
0.10937461997672641 
-0.14870115162427560 
-0.098678781492786170 
0.098804062467908210 
-0.16470029335495710 
0.019384561769276700 
0 
0.042490570634731330 
0.012139244010184775 
0.067981934140530720 
-0.15810037228385107 
0.020404827768343483 
-0.082215582555852070 
-0.11532418669266695 
-0.12222870092130539 
0.17331216994911325 
0.087305004297781960 
0.031119629466938190 
0.053193856930208810 
-0.061647865831741030 
-0.20663279487498892 
-0.0053455465442446160 
0.0055369763387980640 
0.023163193389846020 
-0.0069756618835272300 
-0.21797115741207213 
-0.011655604647131548 
0.15873924745730153 
-0.093198041624365110 
0.15345288798814782 
0.12871387550147606 
-0.045420871101402040 
-0.12922792881841316 
0.26865737266491446 
0.17115862303334348 
0.084491019811834540 
-0.16952249341395350 
-0.28255499777149373 
-0.051720173408681350 
-0.20993334097607236 
-0.10399634478329682 
-0.067574349906477800 
-0.044471865876161250 
-0.051524044789664040 
0.031169847652416618 
-0.30450777074376140 
-0.049126029228033250 
-0.070781780508522190 
-0.26805439457412200 
0.12293264431128963 
-0.28115607697296935 
-0.19259874426934107 
0.032784204508452220 
-0.12399645786403594 
-0.10889857031708143 
0.027365320236963630 
-0.084743311450647800 
0.030157412131762963 
-0.085437949994007130 
0.041991263211119440 
0.0066766411168359425 
-0.039404900817007704 
0.0085504793965175420 
-0.0020647801813416626 
-0.015820745389437278 
0.086549967002769290 
0.030103148777886946 
-0.21771966077549865 
0.036812142438185560 
-0.021811116509214160 
0.18650046897433853 
0.037512835533442940 
0.024357003946114574 
-0.11790782944306885 
0.069513122280825510 
-0.086351852174699580 
-0.088664615907085630 
-0.0076493713105331125 
0.056807037257075685 
0.093780092852839100 
0.088429304654720510 
-0.069076780500307240 
0.034648363832652865 
-0.087891155948940180 
-0.15440219181532100 
-0.066989966109499170 
-0.081416113619508140 
0.011491014662738526 
0.19283147714954066 
-0.042208800191773796 
-0.0053490837568474830 
-0.13406854025087953 
-0.14216160158167876 
-0.12208025404925730 
0.095424500326630450 
-0.041598306767834920 
-0.11100935764172298 
0.0076765889582176530 
-0.091499267392619210 
0.039514503533018870 
0.19649376768912420 
0.11525308647368915 
0.012552726845614594 
-0.046927350325105546 
0.060069412538355520 
-0.13184288473763428 
-0.072295997063708070 
0.054710720733615550 
0.022314038003777046 
0.0079950182184610080 
0.073372347238946260 
0.15177387274228551 
0.014630729682248465 
0.28321817085463650 
-0.095073817929465380 
-0.050253829592223020 
-0.12679230801350982 
-0.26418738319792545 
-0.0020594999697454335 
-0.0077155141476322080 
0.61159255496346830 
-0.11505238231402150 
0.078366266469284480 
0.11577162116612615 
-0.047989432162455570 
-0.072453176259518220 
-0.022002829583196326 
0.30424984741210690 
-0.15314113746853410 
-0.13748586987215114 
-0.086758176983879120 
-0.049935821790020670 
-0.090615736316275400 
-0.22961136439376180 
-0.14067852006745085 
0.049313701397251906 
-0.038154226701015340 
0.042684014827286510 
-0.058062986638453910 
-0.15443062238380675 
0.082337268211439050 
0.10805408319095999 
-0.023769416662448053 
-0.0028620714420170810 
-0.054493913856709576 
-0.24579007523209898 
0.073144006727493970 
-0.16050027344981047 
-0.034170604100082644 
-0.020040076106610655 
-0.075698949908687600 
-0.039967100090657440 
-0.14734285695937840 
0.060117474755592246 
-0.099447525871553340 
0.068276261930753020 
-0.11647656493768681 
0.020598680850191817 
0.16865608800996743 
0.048426439682569850 
0.056689029655182130 
0.11944335989590221 
-0.095386619079914290 
-0.035552068764463866 
-0.078076867112266840 
-0.0026367760847696570 
0.028453282646437112 
0.010487210341467240 
0.090669406003002760 
0.040021523523825916 
0.028803132360935960 
-0.0022811501394262405 
-0.023939703477823922 
-0.11377096139680443 
-0.063593632295821610 
0 
0.0013391128063008420 
-0.046656456073392170 
-0.024538850976198310 
0.032294341076911220 
-0.11334398063063520 
-0.081708693728486450 
0.043406698834858960 
-0.036746950845388060 
0.0075491585624549076 
-0.034029626179199024 
0.0072437117486005080 
-0.036027215878537990 
-0.091039881785206650 
-0.070408946419020760 
-0.19403272519286108 
-0.065366077701527610 
-0.10118685626660712 
0.061613304234182830 
-0.093025083446074590 
0.021115572958447520 
0.028839543486313957 
0.035936084524828690 
-0.095210396836230930 
-0.065652918618712090 
-0.054797792060871640 
-0.063656053756188270 
-0.25794502798521590 
-0.041764131860268290 
-0.040445577783811484 
0.0012215592874222150 
-0.011155409554086837 
-0.069853753397738550 
-0.082073106666150720 
-0.039116005803985640 
-0.10512863189173900 
-0.036932924300786550 
0.023526505220875310 
-0.11992421620375894 
0.0084321235838730260 
-0.23925261439703308 
-0.072362489363509670 
-0.078430121501796300 
-0.044725839042336710 
0.15309934730651098 
-0.019663961546318803 
-0.15840350916488450 
0.063926837447098970 
0.016111231141372032 
-0.056925536190460480 
-0.067172097750670430 
0.0067656959243407415 
-0.024415974896755753 
-0.023763923578137690 
-0.046903274078207234 
0.069097683578036380 
-0.045817030078050100 
-0.012319377931834099 
0.039597351733470830 
0.087672508692297520 
-0.010628402511574453 
-0.054340591331343370 
-0.071524144722875500 
0.0064337632605057550 
0.083842012531758030 
0.063447040965937260 
-0.080642034364538330 
-0.00055854674217912130 
0.023684206575704525 
0.044826255815311660 
-0.11917299035569597 
0.0069479051089808090 
-0.081005266568123510 
-0.043744657473993996 
-0.13802606077470460 
-0.070833525695944490 
0.0056822692435695310 
0.013120262230110894 
-0.018790486547371185 
0.17588192773273840 
-0.013675509773614333 
-0.024802653816466150 
-0.050736946420530706 
0.0025661366781181840 
0.16843501069873026 
0.13143870717554740 
-0.12813598963538486 
0.065831140447184230 
-0.054895651402152745 
-0.010162125319934778 
-0.19740936008466362 
-0.053500607187808040 
-0.060122196885355236 
-0.044111393912224970 
-0.072455855691308630 
-0.0049968564083869800 
-0.044920198297217540 
-0.0098489734839490290 
0.079305696950543710 
0.15472770827451993 
0.074764762820337450 
0.0089270960469394930 
0.13869783879760617 
-0.083464189754995270 
-0.081738962836408330 
-0.13526500736039748 
0.023516527451699450 
0.030918770527713320 
0.037529413583474080 
0.054148025916829046 
-0.15790327231212678 
0.0063157302547915530 
0.061259144848261934 
0.014746951654971006 
0.035838292285596140 
0.12404587845142423 
0.0095487340770410360 
-0.0031674109858503535 
-0.053137084348217270 
-0.10379817494663363 
0.030067593284493740 
0.024799526699746720 
-0.043720034438270010 
0.013774906186779304 
0.085255700455030520 
-0.029812206886597744 
-0.020308980739341356 
0.10625968435820987 
0.030124459662113220 
0.082367237444251650 
0.054041843740980030 
0.097182712561819220 
-0.065482783545269670 
-0.026762514930517116 
0.059049880944067365 
-0.0015883271675328145 
-0.042931530659393290 
-0.11023112181723975 
-0.051768754915702560 
0.041775040643911950 
-0.028632788173620964 
0.046501682171972224 
-0.066946450350897270 
-0.019227984063812960 
-0.054836879726424300 
-0.076409545534208590 
-0.073170363800221700 
-0.033443720919747000 
-0.039328183511276610 
-0.17711612518001013 
-0.19809375795210848 
0.0091020041050186590 
0.16256968295822993 
0.12575428882867370 
-0.043878650452218680 
-0.080887472543155620 
0.13519740142399495 
0.015041622210510192 
0.055421238684464200 
-0.15923109816698920 
0.10538674299480918 
0.068447883890556560 
0.0050111204462090320 
0.019247411484483758 
-0.012230589136707179 
0.10213857251951829 
-0.050084023798009270 
0.0057670093437961790 
-0.0036416033977926300 
0.081167218855237170 
0.097957723597288010 
-0.011406571263433628 
-0.0035725696930594135 
0.039978133052410283 
-0.012464725715264085 
-0.088588301691460880 
0.011270854912771125 
0.0074906069238708370 
0.0085131976248774100 
0.0093007040628723630 
0.027886515840800586 
-0.13775164155546360 
-0.071665796850556420 
0.0093320674632360080 
-0.067165125568386540 
-0.11444610039192610 
-0.054999865013347540 
0.10492446139187556 
0.0079469330211456860 
0.012741288684693342 
0.091534688466139850 
0.038113627922682680 
-0.012317346594622896 
0.056415274241079420 
-0.044360058552326470 
-0.13629742116754096 
-0.012150673892418156 
-0.030120732983505300 
0.093880748554905730 
-0.025806938557519747 
-0.0085613058869348380 
-0.048347647010932710 
-0.10525586907498061 
0.0098773563151600670 
-0.00056412357760548490 
-0.019758805487850827 
-0.037167889940920790 
-0.074841051529089930 
0.075545113733547860 
0.071445433659317590 
-0.10345421176863505 
-0.0037944562372885020 
-0.015264982575298309 
-0.15775515115619180 
0.086270268177642050 
0.018490538548454460 
0.058518764188938810 
0.042901883775282530 
0.067721713134206750 
-0.11199384377457801 
0.016639584251802148 
0.16154938729293140 
-0.071482775407545050 
-0.10770629521813645 
-0.075355588237545390 
0.10596205788241062 
0.0029245648535669985 
-0.032635722088393260 
-0.014372634148144771 
-0.034387872697054615 
-0.015596708397844916 
0.0060703717282163670 
0.027744034519922856 
0.0015991789578860550 
-0.018960054848364445 
-0.047772819146256834 
0.027753839576717760 
-0.022090612873019550 
0.037392878053393170 
0.025882825058054677 
-0.0053942591406580850 
0.018261220254987835 
0.038837869383495510 
0.00038817281893961366 
0.033597740855807230 
-0.010517842203885326 
0.060599109456158214 
-0.0033866004293178244 
-0.0084224065996765480 
-0.041607193377018740 
-0.0035177608339920447 
-0.016361612228639747 
0.048514584242345976 
-0.011480811776346453 
-0.13205655879062705 
-0.11105942582854335 
0.025807817735369963 
0.019033799664574882 
0.0033564079850351800 
-0.086200305165289480 
0.12258794983042261 
0.017024658286298202 
0.082650883318971100 
0.078302026291143480 
0.069035069964042710 
-0.00017092528283126160 
0.011022450809484430 
-0.0013835100274529315 
-0.025713652503627834 
-0.0096657621847641010 
-0.083097852451412140 
-0.039320768014024225 
-0.039889160318014226 
-0.0089964331196934750 
-0.010208403972078882 
0.11765199104542176 
-0.049750808385661620 
0.12860876574229038 
-0.066325377839494980 
-0.098972466504859840 
-0.024113062625186373 
-0.042426170053129430 
-0.097537441030367920 
-0.014620114736115767 
-0.063454947589431630 
-0.027062498720213970 
0.063796532693622440 
-0.055177981093612084 
2.1278256376563760e-07 
-0.039571739287114720 
-0.047283711015626720 
0 
0.029226388997240546 
-0.074606254432898270 
-0.048400570265634116 
0.010294113276813151 
-0.051351810363382290 
0.012922135336496270 
0.13978888884603170 
0.0065726077536760480 
-0.014220572541944526 
-0.063868814414309170 
0.090694846662318450 
-0.0058373953922395050 
-0.047227405488704770 
0.14330595668868712 
-0.087218412753025390 
-0.079993645227254480 
0.015726982110980810 
0.025128490290186170 
-0.025685924750995244 
0.053927125861955830 
0.057757094871278390 
0.15032718409455650 
0.17195306540049132 
-0.089819282017073260 
0.090123586782909910 
0.090482170155855270 
0.020433638525397110 
-0.063441458900942510 
0.10103101591837835 
0.014666183050672056 
0.056660661763495710 
0.17022174432095824 
0.15328458846787257 
0.13992299148572934 
0.021336900739466030 
0.030034625015576175 
0.0087370974293739870 
0.047463895794026500 
0.095120826776994360 
-0.058047844931293900 
0.036894585680622180 
0.019615010945978080 
-0.063955862674980030 
0.35775208003295440 
0.044273655498333280 
-0.13285112647074870 
0.074622819188790340 
0.027306087164231900 
-0.027909401526697540 
-0.071932638410674100 
0.055851960317563155 
-0.022831274679293925 
-0.15453450377908942 
-0.050369287532435320 
0.068715462195227200 
0.018827986955131230 
-0.0021739356975769473 
-0.057380395313526550 
0.078779476178995740 
0.047169331921954535 
-0.030067781014488280 
0.041973492478017856 
-0.038866225386136495 
-0.083813845750833900 
-0.020596650221512750 
0.062741753603523830 
-0.10716391760108587 
-0.037215781131995920 
-0.014962242874199990 
-0.13441598270921480 
0.068133603152150710 
0.010832866587299124 
0.059331843229781510 
0.050533214147338065 
-0.039084101290856630 
-0.022053390047527810 
0.021089815816430973 
0.080887451294393630 
0.11872721388691804 
0.060610430544815350 
-0.044209751117481540 
-0.0047146942010750370 
-0.0078425929918114510 
0.030698742492145500 
0.039295640294350930 
-0.021060343424293273 
0.081380780711002240 
0.11753011415259981 
-0.014952367460628445 
0.052867330694465406 
0.013777079823565555 
0.18087144212763712 
-0.022004963909251447 
-0.076160274801696990 
-0.19712889553676768 
-0.13071596855608690 
0.036759454197001630 
-0.10662080342437102 
-0.062909840206421780 
0 
-0.043919094520396380 
0.0044577950840696910 
-0.0078914039985644590 
-0.0077765694697688080 
0.029285792333635333 
-0.028061877278827477 
-0.011348630674462462 
0.017653057213386400 
0 
0.028597613778090662 
0.015928002274229710 
-0.065700561261035200 
0.035504267829449807 
-0.027055535500116090 
0.012218475527860637 
0.0048229982605979620 
0.011403465769028585 
0.062472639718664820 
-0.013151861673935169 
-0.0074107023824710750 
-0.045213141934566600 
-0.0098912516799391280 
-0.059814236681933510 
-0.093230032228996380 
-0.060301224085069680 
-0.041111123962571430 
0.059156687706282970 
0.049411576232110870 
0.0080411066606447120 
-0.020082844373307204 
-0.11127581571286961 
0.021898492191190300 
0.0018400252713600266 
-0.0043942653677805780 
0.011758921930030575 
0.045204104123893700 
0.060124474036785495 
0.091006778654282120 
0.14128999121804078 
0.022711329888491734 
-0.30704763128195940 
-0.0057656477880102695 
0.066910389985495520 
-0.12818301068553970 
0.14749869213482014 
0.017836605712048090 
-0.17468888864102294 
-0.027620364236320870 
0.10650248601797228 
-0.10802016674996340 
0.086365302698359530 
0.16488350305411723 
-0.011985269515621738 
0.10032183428740628 
0.10689041235703520 
-0.12786270380578585 
-0.13197066733408236 
-0.081657091969892540 
0.095178701141596810 
0.037835472270894066 
-0.076228546455129250 
0.023884136683980480 
0.010593786751238954 
-0.043065041457127390 
-0.012443255168496856 
0.047843677140450050 
0.092928451564590430 
-0.066148595467696330 
0.036015636819558190 
0.0042584359760058650 
0.11475745247357365 
-0.060075678032942590 
-0.067023922651868640 
0.10544945560283071 
-0.027703197440551646 
-0.016576688290039963 
0 
-0.14791269531575220 
0.081322957978191700 
0.075369429741341950 
-0.17506429888616978 
0.17194466269927750 
-0.048948806659044886 
-0.15746449771866660 
-0.089968502851364540 
-0.047036891987734820 
0.10762607885499490 
-0.0068577142712593880 
0.045612102280678500 
-0.045389628354660955 
0.059093972551212265 
-0.099172020166169440 
0.075876562229652670 
-0.10131584544244122 
-0.080050300941498540 
0.036064117067466230 
-0.077823963559720990 
0.25856325187202020 
-0.24904053408215193 
0.089918206460702880 
0.083501128771864860 
0.040872108832261340 
-0.0096869933464585580 
0.049044815928442446 
0.074771779495563750 
0.041806807359307730 
-0.18579241856934328 
0.12758640154066878 
0.025433681111662120 
-0.028028246043460815 
0.019477101113089486 
0.24045520465495465 
0.012940366483476053 
-0.17576488008468255 
-0.087144015685958130 
0.049945936208156946 
0.032023165012807050 
0.00090953229972991080 
-0.087057836380600020 
-0.10573516091106851 
0.038804508090329520 
0.017829130542410360 
0.014622686931318105 
0.013115505567237540 
-0.17296039495861690 
0.12240710384451187 
0.077784109907174050 
0.0078238854753954170 
-0.017133968025049216 
0.056876171863259860 
-0.20664282618095050 
0.064333927343917200 
0.10396235254891963 
0.0039812967150956600 
0.066242086668287300 
-0.027546282800943450 
0.080827303567329940 
-0.048647420855982320 
-0.0023111957658597804 
0.087511538866522800 
0.13700712864303433 
0.080070670155914320 
0.010856930741009182 
-0.34371328246353770 
-0.22558291806279670 
-0.18748026212905130 
-0.029269527647280212 
-0.34687973274776990 
-0.075837041154566920 
0.077983994450177480 
0.068507880975413220 
-0.036163215116881885 
-0.045776337163780406 
0.20614897847980668 
-0.066821270173371920 
-0.14015700348310428 
-0.056576455458390580 
-0.24178467415358817 
-0.016543973152273645 
0.018991428794147325 
0.027817169727347626 
0.033045371903529276 
-0.059075358001909540 
-0.12315674837492746 
0.061490215882347540 
-0.12275024462216474 
-0.10075039710074517 
0.14061149143106016 
0.0085319538061282100 
-0.086052896919708920 
-0.043866856347607466 
-0.012492205114187008 
0.16099205109603684 
0.069451467089633220 
0.013850196610041712 
-0.053280249852268650 
0.026897873267139430 
-0.070231553484647130 
0.052670004170872003 
-0.014972996122948215 
-0.060086633300574050 
0.097790707499686740 
-0.17814175022496756 
-0.30094857660181730 
-0.033226407099605660 
0.077441540133057080 
0.15941991126568805 
-0.086255780640219990 
0.049858392500129230 
-0.037475658293698415 
0.059697111938521360 
-0.13474944255351100 
0.023261520031206292 
0.14248680990435222 
0.0086537703637204510 
0.017014697914959490 
0.038834689445838610 
-0.16010040658779887 
0.060499023809126460 
0.039433429010826740 
0.22268357325495472 
0.066735372713880580 
-0.10685835969612607 
0.0069230379844127700 
-0.14015983982690935 
0.11287280909491199 
-0.066385561756826830 
0.26320816527856006 
0.00031967325030237900 
-0.13373414221636540 
0.13786538199906936 
0.0046914488132116090 
0.15510937352844834 
0.092115620564305430 
-0.14149623728498453 
0.27835530164165640 
-0.045620703644135150 
-0.068118266390777230 
-0.020388284043723900 
-0.015998743467410252 
-0.0091202373868079380 
0.056990605175775820 
-0.10728549781814820 
-7.0364500690588660e-05 
-0.016972278612519112 
-0.15395340580718870 
-0.081334633735041880 
0.34362988036413145 
-0.074438499020209100 
-0.014991809197241612 
0.036739964029448485 
0.21570382212256908 
0.27431298163510737 
0.11373143451112482 
-0.11960107233939621 
-0.14540881983473210 
-0.0023317782219103387 
0.16051004786341970 
0.10344939943205790 
0 
-0.0064701791907161250 
0.013926994785664480 
0.047427206300823050 
-0.063346027885493830 
0.11468561566780604 
-0.0071112924682618530 
-0.041143207901409860 
0.10767259610334147 
0.016839083903240960 
0.011875245238863642 
0.011165463432840807 
0.037184145286197415 
0.017515673181161297 
0.072496488836958640 
-0.069507443500319800 
-0.0043895998318302140 
-0.014735681327678003 
0.046359822392849500 
-0.014980248120246158 
-0.10407646779817367 
-0.13662889397146347 
0.041726665314849030 
-0.19948123581699984 
-0.14699463237814053 
-0.072278303755997640 
-0.12858526157691405 
-0.088052262501877980 
-0.17165420362581246 
-0.0011833709525671436 
-0.072644669649481640 
0.010422046421708896 
-0.11676142507227871 
0.0071505512837347490 
0.11376587659418347 
-0.032269370160570670 
0.019575349030949936 
-0.042945165275148220 
-0.034364394886824270 
0.030340242822242826 
-0.069304118289698800 
0.030258113331595170 
0.019623912112684850 
-0.022017043770490490 
-0.035714909383834510 
-0.0043604696479985530 
-0.11306208833541667 
-0.051265619954164150 
0.032494113247669924 
0.0095246135779207260 
-0.17196804984605070 
-0.13914355071525353 
-0.060854123173617790 
-0.081522600678582650 
-0.16983379129274180 
-0.14968097341928505 
-0.12690458808461297 
0.026944514547545110 
0.17638853452618528 
0.017824524197172440 
-0.032412460863818056 
-0.081747036641695660 
0.031798097091654210 
-0.036213028533428920 
-0.12761990478877125 
0.074303107982811120 
0.070672921276120400 
0.012752018485475875 
0.10360854709514053 
-0.0011478345589075235 
-0.0092716645861348640 
-0.065862829531144180 
0.23292290922233810 
0.030832241086164343 
-0.012079830010592688 
0.10218943422373404 
-0.10027027397367376 
0.031376750192432660 
-0.083491264719404850 
-0.10972531410804025 
-0.027264533556037340 
-0.14179917070743536 
0.42283393279751530 
-0.058671926743702730 
-0.013224028940129832 
0.014769765347442291 
0.28848554581451070 
-0.094072338516267850 
-0.0056550871020204860 
-0.054072492190616390 
0.14993280400210140 
0.011766601523947068 
-0.084260445674689030 
-0.018711155435982854 
0.066847743240342750 
0.094320811698316780 
0.16512284931723026 
-0.055059337520686050 
-0.19501040643689332 
-0.049359531891059240 
0.10747254578260956 
-0.052373244828023274 
0.031717109608074646 
-0.040620804786987480 
-0.12953274061521990 
0.022053956562131143 
-0.097842413681738280 
0.18317776993688930 
-0.14526586035052727 
0.023243968264688200 
-0.13357921636405420 
-0.035223072137641880 
-0.13762152136121775 
-0.11112525238072832 
0.055396209741593545 
-0.047878870810786400 
-0.084580789585754240 
-0.087421628837355740 
-0.0035242760089616680 
-0.086337905773229060 
-0.024620498882361480 
-0.010987657415444614 
0.051516835529165840 
-0.28439679782527216 
0.068497580117784440 
0.014497007273704069 
-0.026836947959165440 
0.32813422035792456 
0.020976349935130353 
-0.052181734010897480 
0.011533070132326260 
-0.16736910675392752 
0.087082303013857420 
-0.018231390804810118 
0.017271706823850000 
-0.10186985976867957 
-0.16352267901954526 
0.073441068833753160 
-0.043310995391833765 
0.17491753746954364 
0.021039293834435820 
0.091651987072350730 
0.12963531838038353 
0.027298814304049050 
-0.21498219995577345 
0.0030220892967893938 
0.028740759409591980 
-0.18044937778522930 
-0.094161570594436610 
-0.065940653010693130 
-0.0039829368524158910 
-0.23640927965152966 
-0.0012021113570859195 
0.047444091279181190 
-0.17523825616399388 
-0.10531653906134343 
-0.0086641268292662820 
-0.16286839806298034 
-0.040113481531203504 
0.017414835377181647 
0.050197097718308680 
0.11170400727629648 
0.14934107973136990 
0.0057877395801025555 
0.0054679271158717300 
-0.0088345659488791290 
-0.037072642121568807 
0.0094469018153954700 
0.023599283999234565 
-0.024597618610226118 
-0.088317494185853230 
-0.0031535838426612730 
0.078549773748728430 
0.013297910463688150 
-0.019208118347020534 
-0.076818823693448130 
-0.011765392340299656 
0.022867771279157850 
0.0054489408304642780 
-0.10179495726403200 
0.038669932673469506 
0.075940604132300370 
0.044700854989529900 
-0.12732273061713822 
0.048085211547420986 
-0.032469317857687380 
-0.018765435146240666 
0.029922972853294358 
-0.014322488533282288 
-0.093156655320381780 
0.056325991381075640 
-0.010392642169284604 
0.030275903915440792 
0.18246571728408215 
0.073182585545947120 
-0.036022544795880525 
-0.10476329880824363 
0.013561125565612613 
-0.025495452845189030 
-0.23279151044778080 
-0.056618395156726606 
-0.10616648062688473 
0.12142850063133666 
-0.017027471012462540 
-0.056307009361186405 
0.10117816213056892 
0.18261187944554370 
-0.070584550338931480 
-0.10129915239106917 
0.090453195373097280 
-0.0037566620203785800 
0.079527486420590800 
-0.16970985249824405 
0.15397326784031423 
0.098056682057419600 
0.065760091047270830 
0.039031898499910685 
0.070947518497180980 
0.18303128461692242 
-0.052957910742164380 
-0.0048024538616690310 
0.080942211398625060 
-0.085118659951389410 
-0.013197099096494901 
-0.14291173458622952 
0.041549852340579980 
-0.076827150494249620 
0.019730768482448615 
-0.11994869214006659 
-0.0042349379704260480 
0.028632319019909078 
0.0036884539392581250 
-0.057201635217685770 
-0.10061721131328193 
0.0010916776338595023 
0.043415879961684220 
-0.062849952104204480 
-0.026265745918583938 
0.029588019068204952 
-0.051354002921254666 
0.073450038694610660 
-0.10763085916993707 
0.027203463581267400 
-0.10507420687040250 
0.20251828962473303 
-0.021898626001119616 
0.21279631070266625 
0.090099841699677200 
0.16538909862794596 
0.017202590911200095 
-0.16694950729480576 
0.00014703580269073658 
0.010234397861756367 
-0.11478368862600262 
-0.18750278475768320 
-0.026032043987476425 
-0.031051002043441536 
0.021574417100678655 
-0.054574519661249250 
-0.035020994459473780 
-0.083917505017033900 
-0.099484259974952390 
-0.011611078309000291 
-0.038340684704591920 
-0.12682009985750420 
-0.050433855011279660 
0.076536892847472570 
0.41445624732927460 
0.088146972204377310 
-0.14422326279666028 
-0.10516540053004188 
0.024560755788468676 
-0.023630519818797196 
0.066119186280785250 
-0.0044770463083968570 
0.015277134850486158 
-0.22338598449131070 
-0.014013417101523767 
-0.25652536549932620 
0.066608439987915350 
-0.032698441549800304 
-0.087684754113472720 
0.028435412561242940 
0.071628846398814760 
0.055869799211782575 
0.13995078202120714 
-0.0052368972819002460 
-0.10777803530787756 
0.011578471701641595 
-0.079827179577225860 
-0.069788872164920040 
-0.098179487188218200 
-0.0057812839539018480 
0.0082336712948770130 
0.16512317745098876 
0.086915139711387620 
-0.14072827557340226 
0.0086808108438690200 
0.043726702127508090 
-0.11973343962066528 
-0.013365052568871175 
-0.14432654749395968 
0.030932109133935220 
0.14564276952328178 
0.049466227397542625 
0.0033900922176983670 
0.087674172534201260 
-0.026838916398514080 
0.20765928283759572 
0.12330636340256955 
-0.18195189718373303 
-0.10016650558631451 
-0.066901412869238590 
0.037014580955137930 
-0.023117362247859236 
-0.043146821418488230 
0.096280115212248620 
-0.039633320654998530 
-0.22235404250433540 
-0.069810857886322310 
0.040446981995709330 
0.022869136789753712 
-0.012196476467755853 
0.058304614627984950 
-0.15797914287281940 
-0.012375120813146245 
0.035693158779276354 
-0.15873745958445734 
0.095076485710808730 
0.048763882588364706 
0.061944523483835740 
-0.026340119495143410 
-0.13768234856977857 
0.091285113200618120 
0.064320547685077250 
-0.018624959340210728 
0.18141154162576430 
0.0051700585836283570 
-0.11563915077160068 
0.077588224321475470 
0.053909595523261330 
-0.018739967629871575 
-0.079169592710306530 
0.041179838401595320 
0.039932312781549790 
0.15131155063086320 
0.48223286014731240 
-0.033511477781489060 
0.25134138268934697 
-0.066711772080765310 
-0.027443910299004300 
-0.077209084660184430 
0.013413697086372578 
0.046686548011442340 
0.13702983532988840 
-0.072282367125403400 
-0.0048965395530462390 
0.064600997349586620 
0.22382696077471830 
0.014405242105193047 
0.016311066343842533 
-0.0066993753114922274 
-0.25388167594323957 
0.12633187366040700 
0.057490786666380740 
0.014864006009189874 
0.19409371071214915 
-0.10948819259226280 
0.26635612963654980 
0.38475571725169600 
0.026324416766826255 
0.025700378477069182 
0.16367078910017738 
0.26688155019595960 
0.10998313781153772 
-0.024978981897900760 
0.16050869366301324 
-0.11620384046642077 
-0.11017832857120517 
0.29994448818499420 
-0.046500174953284110 
-0.14865366687852294 
0.028602619676276322 
0.17103392348363616 
0.030302031610645730 
-0.18230794042602558 
0.21621112374354587 
0.018662814103013566 
0.35707279799310530 
0.080188840101821900 
0.045534468465094120 
0.10955541007541303 
0.063711432214324900 
0.071208878840753280 
0.21984557580694860 
0.18675915097590837 
0.19855868363282464 
0.029712298743570287 
-0.036167356027528940 
-0.041084961719432090 
0.0026825855183352327 
0.048893830384070980 
-0.087472295797944630 
-0.088023549750390300 
0.059637218458250214 
0.035694498382345306 
-0.0069818507199602960 
-0.033291478200246960 
-6.9060058996519600e-05 
0.050152784768520794 
0.064560502798271640 
-0.12414373561754556 
-0.00038097414359255285 
0.026071180186421843 
0.15183284497445976 
0.11447226479816462 
-0.14026814887443442 
0 
0.015047173308289063 
-0.12800609769005630 
0.023226494449186872 
-0.056486427839629700 
-0.17518149619790480 
-0.077618006001079320 
0.21695537740465531 
0.0042602483910168400 
0.0033153080717680390 
0.010167030196164540 
-0.12522626561581662 
0.15048026297235650 
0.084165532458514600 
0.077430472904962060 
0.049348838422416910 
0.0040783914945997810 
0.23355430234805633 
-0.0032888023430452046 
-0.059386975645659326 
0.11936370109288195 
-0.0014248385456375502 
-0.045534869753136400 
0.014916711530211617 
-0.15955525264972814 
0.18667558248595023 
-0.0029705295542212110 
0.093735302725257000 
-0.098161832635072800 
0.40474161308122497 
-0.065332714090309930 
0.0016519365249354455 
-0.097163423211575580 
0.088664541838102300 
0.17189559908597807 
0.077977537327210360 
0.17344096448074425 
0.10294119320638340 
-0.051764742316710056 
0.0013230231964319180 
-0.039409874783406460 
0.070174211623083130 
0.062313015496610080 
-0.054176407804898210 
-0.0011374178810892640 
0.052843493819253360 
-0.011194523373249220 
-0.038407242845661584 
-0.067244749581668340 
-0.029609033875602950 
0.15232852913522105 
-0.11124644873503832 
-0.14405449151749725 
0.14815445254983010 
-0.086634852122502100 
-0.075458396544128780 
0.047116434932843040 
0.13193783788578178 
0.16968108530616350 
-0.15038956325238192 
-0.046463100033094486 
0.064613751319759660 
0.0019365054707799882 
0.12503605374507415 
0.064978825152559190 
0.16679180757865130 
0.096084984651883090 
0.099407819039520760 
0.054124222623989900 
0.13463476666881127 
0.10919075502185852 
-0.0045853860532413200 
0.10775331487787368 
0.042813323374529630 
0.11004952562856508 
-0.11513967633541063 
0.081122682850863710 
0.063237821142664900 
0.19893823760834917 
0.17117408357532190 
0.025819875486743980 
0.20821727782660646 
0.15991038535154853 
-0.085672439553617200 
-0.14016318251061644 
-0.16217108736377003 
0.13683162717673505 
-0.010378402460527996 
0.0023995233797684886 
0.078772904700188450 
-0.13596497842533128 
0.064806207371382240 
-0.10298562969735953 
-0.025775976234580570 
0.099141471150000910 
0.14580902075015417 
0.071377560198216460 
0.054329235177408314 
0.23017086957595823 
-0.093243920447700860 
0.022218381455764520 
-0.0089882668310304900 
-0.058889115730013880 
-0.12464009777578337 
-0.13864029414577580 
-0.096676763836282330 
0.048832045124280570 
0.014764494044635949 
0.096166381202870950 
-0.057983080758084670 
0.40861318516894857 
-0.066170617635569180 
0.12086616323406026 
0.055905709635659384 
0.056432820294388154 
-0.063333820494123300 
0.072454142955582920 
0.052684991448554985 
-0.0084715958327302170 
-0.10762223365191112 
0.020796401135843728 
-0.16898689000102580 
-0.14572797245259150 
-0.0048322387206140000 
0.21321707319273570 
-0.056477822573229890 
-0.11919199167135458 
-0.015646297140907490 
-0.013160497301413134 
0.031902345309742355 
0.081337469347939520 
-0.17790601601855060 
-0.00036462548186140230 
0.32231537805485380 
-0.029007497848648707 
0.064247850030975200 
0.055538508823555790 
0.090836708257557100 
0.15973566973572453 
-0.012379738634599898 
-0.063785672646849630 
0.14999609627452800 
-0.066349934256144800 
0.011192860362175157 
-0.052699050961861116 
0.18699535661514918 
0.0026056498190407014 
0.091169555315358400 
-0.031890726278969780 
-0.056128000099429434 
-0.011596649132821140 
0.050113409235247730 
0.028758965141152684 
-0.079300363736130280 
-0.046116788010523754 
0.061884030439052606 
0.16451986553928322 
-0.064993578898232860 
-0.044915318089842230 
-0.049781887207869800 
-0.020131617207067080 
-0.010692152260235790 
-0.067292486781713230 
-0.020394279637533024 
-0.094163655633272720 
0.10647948631245904 
-0.055892170814359670 
-0.12664908685056558 
-0.029903405169542006 
-0.014924519577947257 
-0.16791865589452268 
0.18403577827988580 
0.0043773573707165810 
0.068046685113799040 
0.089044110383522280 
0.0091343380035773680 
0.058954047596681840 
-0.050731494712583470 
-0.042167686957873700 
-0.024028778540145000 
-0.097552142865850370 
0.14545681456383955 
-0.039312305889254370 
-0.15361138930999646 
0.034667946403818450 
0.25831981374072416 
0.013876450171197312 
0.061290373194854975 
-0.12062513426249256 
-0.15820451975820324 
0.13653238858522210 
-0.14456632105278540 
0.040566741854795000 
-0.041279155120450150 
0.013522951236012165 
0.21206785596395372 
0.13191969254425080 
-0.35222046864424333 
-0.16298932290290000 
0.073010449408694720 
0.0092489234275852180 
-0.077052321604176730 
-0.0058974212619366980 
-0.012822509756074640 
-0.061075349186464330 
0.21169192472495207 
-0.090656465093960820 
-0.040544916935282990 
-0.0015600334620988442 
0.057964798615365284 
0.019068442814708937 
0.097139524756642820 
0.046737880360118375 
-0.024016538203818934 
0.12125441512077237 
0.10587662243441412 
-0.18944128393999332 
-0.073419543241014640 
-0.034400901748407015 
-0.0031214029197410183 
-0.028505978523995230 
0.053191042454377384 
0.020178259709508463 
-0.030020610629093468 
-0.15367408959753148 
0.061018734178533984 
-0.014186331911964237 
0.052833954509969860 
0.016660584577619090 
-0.33859349497128220 
-0.080178783466324980 
0.018388648815157563 
-0.10718787029220915 
-0.14438824935692404 
0.044237315724528730 
0.19571220522400185 
0.091214898565830000 
-0.011192307143252707 
-0.094557182365167190 
0.11097548290858525 
-0.027587216608511142 
-0.19207219708847217 
-0.043849277179599620 
0.050106024243538870 
-0.091587300371472850 
0.10462896247787017 
0.049526715922941520 
0.071293496837447000 
0.19653044073854778 
0.19461497793332952 
0.19315143826939044 
0.35914073209970530 
0.043323585524095510 
-0.11776296389272257 
-0.26970245261510584 
-0.16487867237362430 
0.14297367341062978 
0.027053949484806190 
0.20975978486397560 
0.072784512981873050 
-0.083123790368050110 
0.022897630866464146 
-0.054169012246387260 
-0.10088491983791380 
0.032857789509144630 
0.028792292745385000 
0.098647626196646020 
0.064625293905953170 
-0.014345794935813214 
0.042222954254795386 
0.014293747539616673 
0.25192887478763687 
-0.050207644232342750 
0.019493500138361566 
0.095114250363634600 
0.020618768151960770 
0.086658238495580560 
-0.068852086965228780 
0.0043093673398563410 
0.17311446357423450 
0.056903385874118740 
0.052253744465134255 
0.10917686784649873 
0.074305065302070070 
0.070893714474612290 
0.10397400115473096 
0.053468795222157700 
-0.38888774487225510 
-0.083634785988185940 
-0.019102121296373845 
-0.13772496785327812 
-0.32122070784958030 
-0.16887928458847773 
-0.22528942307852007 
-0.00035648667980374240 
-0.075631511249070790 
0.094204971749631020 
-0.099772417177994950 
-0.32578625753257580 
-0.051926810357115494 
-0.054573190251244610 
-0.072400804015826830 
0.014747532592053277 
0.031640025301762660 
-0.064303737123462520 
-0.033501405305323160 
-0.049358296957938790 
-0.10973245209793828 
0.061575086429464285 
-0.060296087168885695 
0.046400493120623780 
0.13367046783804912 
0.037810426015510550 
-0.085506062627905710 
-0.11206486803114626 
0.025985404207715224 
0.25759848114846645 
-0.15340875404271462 
0.057374993768132450 
0.058245562387107555 
0.031704349248714965 
-0.048114211899936840 
0.22567635220878818 
0.20612276752511800 
0.037012664069497980 
0.40191070094663933 
0.21058866435294360 
-0.16453380125883077 
0.095881429523862140 
-0.10818959837539095 
0.22410983199233575 
0.11648517516356430 
-0.023766870194051060 
-0.078051190355993420 
-0.014550590550183370 
0.053953475047472590 
0.11812374737292343 
-0.039750900717847930 
-0.053298905217508824 
-0.15642707127028257 
-0.017771475586678052 
-0.033298794152778210 
-0.053948225710590650 
-0.12302135457470581 
0.29654494391263425 
-0.081076871123882900 
0.0070874899476443580 
-0.15212999129981009 
0.10169954680576960 
0.091609980221288270 
0.31841992986903290 
0.086559439191052500 
0.11289555242215639 
0.055317516223610210 
-0.072263303963476200 
-0.16990454727877746 
0.37978417946835470 
0.17516436353357773 
-0.22656116607208324 
-0.26359851342137314 
0.10899469350094260 
0.093837615138663100 
0.18031110376511097 
-0.046302296235648800 
-0.12416607468908054 
0.24537659047548735 
0.24838940029590456 
-0.17919893886016500 
0.090012786187295520 
0.060745804330980200 
0.31049998192303085 
0.013480626894290660 
0.12524673565552324 
-0.16566186710959113 
-0.092139298698523960 
0.089249442408179140 
0.14509156506317125 
0.028218626846963860 
0.11028746047178567 
0.12250442372704022 
-0.12433823299742534 
0.23457035397439690 
0.012220648848257572 
-0.00026023712480698570 
0.071300429634291310 
0.19185886067895260 
0.061063634177671060 
0.076740809255441910 
-0.065070937677919500 
-0.11302173317965693 
-0.033908033883449845 
0.066441864761890200 
0.059410009587541950 
-0.083309669238919540 
-0.12947126106874504 
0.062434637460972290 
-0.015667762775849530 
0.036575536607586250 
0.17602446116477520 
0.096952981989447600 
-0.048530232736544140 
-0.063769022928357760 
-0.12471031045240828 
-0.085261068786209160 
-0.13050716993941160 
0.10475422326893260 
-0.12500044249211370 
-0.047922314789217144 
0.014815363594770634 
-0.074000597686977320 
-0.27804559943191060 
0.014280384047014857 
0.063845834665132700 
-0.040991443681153250 
-0.066931392638626270 
-0.17556160267318396 
0.21675880080472050 
-0.068514125764190000 
-0.024984235269937514 
0.024205082343110605 
-0.10350180893752330 
-0.17794732703905560 
0.018562287266377370 
0.0088244692246725040 
-0.23876933570151550 
-0.095283524638670860 
-0.023523955616670783 
-0.20572000216863280 
0.036045985025589620 
0.11953898980199062 
0.18917805103816790 
-0.043384401891364130 
-0.073047980041980020 
-0.029759575669315138 
0.028088169057567728 
-0.15145768990910270 
0.060141256615302080 
-0.092555887600840090 
0.086192201957090960 
-0.13694451900892907 
0.053402787582386980 
-0.14294611920052310 
-0.16703549703424497 
0.12212848203335610 
0.059096188397633370 
-0.023447171828260015 
-0.11828245217976540 
-0.044251993735280190 
0.035551928104703256 
0.071980948033002090 
0.32238868002513194 
0.11996997727277738 
0.026336743931289933 
0.046410572157589260 
-0.085885034428536840 
0.12244099391305951 
-0.053703985713894360 
0.15036905348384283 
0.10652049569969459 
-0.21241169169044655 
-0.042662373211664904 
0.051694530057622375 
0.24609112628564250 
0.18866800771807646 
-0.024070230410829622 
0.023730403473582268 
0.057614483475746360 
-0.060996973083677340 
0.15522616515798465 
0.11438077421738227 
0.26846988687295437 
-0.13215524899449801 
0.066330517052183940 
0.29300618488646507 
0.12494244221111528 
0.24886962073051272 
0.19879435538041380 
0.055241344372160876 
-0.035642033093632780 
0.051596615926071470 
-0.021753456196426976 
0.090405581184615970 
-0.091064330529190830 
-0.0067083498656736580 
0.044074217877086000 
-0.15803297100052133 
-0.22064834828466280 
0.015722046794987260 
0.012767480836397836 
0.069259498562739950 
0.11638995826581709 
0.050806939129130680 
0.10739588900505329 
-0.16540880403916697 
0.061302841131836885 
0.16655964508538776 
0.24975114560858094 
0.066198498449787040 
0.18322918322254475 
-0.072816911516960510 
0.16240615437954115 
0.10060401148950204 
0.15452091731163933 
-0.026393169563720080 
-0.10647516793933368 
-0.13917561059266850 
0.10446260143096998 
-0.076380261199524490 
-0.0029100065040050596 
-0.039167671144044694 
0.010583574336780123 
0.14405791050828337 
-0.072637109454857520 
-0.16355637922378236 
-0.069668613063722680 
0.058207634374289110 
0.39013224464671830 
0.090723358656909600 
-0.28235301049189543 
0.21891665917086522 
-0.042369446098635380 
-0.041901984348846820 
-0.016109643599229246 
-0.14565504048170844 
0.11141982155394181 
-0.15470653482373076 
0.20806513464663310 
-0.29624276747101946 
-0.0074343697046699670 
-0.0032590505334785472 
0.029495841478044772 
0.14401748262969322 
0.017491474051158560 
-0.078647688024342040 
-0.13881984497230610 
0.083148356557744440 
0.084663438202326650 
-0.11569401443805345 
-0.18049025552904507 
-0.029388575662819960 
0.073283799487219830 
0.0025521978313186890 
0.10106046547348177 
0.018515357352752930 
0.12036597950283907 
0.060171046475098490 
-0.0090493432404668700 
-0.041778673970150810 
-0.062532707951994180 
0.019848122096868856 
-0.024575552863712286 
-0.065637491293860820 
0.076191988058606410 
0.10653929521619829 
-0.081559839304071600 
0.0040475669533223260 
0.055262042003173400 
-0.050844026899286130 
-0.11868274869805168 
-0.21369750390655230 
0 
0.063499163538038680 
0.061288023377222556 
-0.082457687882458140 
0.15722918833836620 
0.11805370937736785 
0.041953402010902890 
-0.055858576503806615 
0.10178085767286923 
-0.18158348709106628 
-0.15460260710630070 
0.13960381361870103 
0.12152421357199102 
-0.0049180521270858230 
-0.0084843301422487500 
0.10002973369391327 
-0.031334206600407456 
0.086552396835529450 
-0.0030797232407767366 
0.22744946773146021 
-0.075807928296801410 
0.0031036694859972940 
-0.028838437180544290 
-0.0017106216728197399 
-0.037253491010403234 
-0.059345051433153550 
0.13850328859510042 
0.19933453633810902 
-0.0042767890462382610 
0.084392918111163100 
-0.0017541475029798081 
-0.085848256469611940 
-0.069830434650209520 
-0.061427844968072550 
-0.029763635264790554 
-0.037321422244929084 
0.10979434778574736 
0.024673554299006837 
0.10189341371042476 
-0.059360244707991030 
-0.053785150133244660 
0.071201444116638420 
-0.029071294458475432 
0 
-0.016217879174217530 
0.0084197381077776680 
-0.051492424885461620 
-0.028255396509106110 
0.048838795939747770 
0.0040049426883312640 
0.026709632486617450 
0.043440371080829870 
0.0039211182578860000 
-0.0063147552922343520 
0 
2.1278256376563760e-07 
-0.0053886372561968630 
-0.017859172654254858 
-0.0065814979706602120 
-0.025957431111178390 
0.019112520248682516 
0 
0.050551815016597080 
0.0087575354570876630 
0.090693863015793240 
-0.14471636185678374 
0.081674778405754380 
0.036683267709305110 
-0.034182894076743096 
0.044173243482183835 
0.067947449269284820 
0.19554179297637880 
0.034272765733255016 
0.012278888414671242 
0.072208411012712500 
-0.074172416233187490 
0.011633052701715718 
-0.014851726125633069 
0.0070570746061840770 
0.0074189478486158340 
-0.065225396546934750 
0.092027494727580770 
0.092842879670268070 
0.045037149098843190 
-0.063003854845412070 
0.16979849357848423 
0.019797804466510634 
0.20790324403906527 
-0.033554876719627647 
-0.0030626598430158313 
-0.25266562474287950 
0.14598694008356022 
0.071570765632983230 
0.0078059427238912070 
-0.099475321799414640 
-0.021098378618736043 
-0.021417853394302390 
-0.032098458476456490 
0.00059765756449945040 
0.069208218024248720 
0.018424633092746043 
-0.11010775162840268 
-0.22421482137507745 
0 
0.038548036400885150 
0.068384266463297760 
0.053394309424244310 
-0.14476259603396690 
0.031409574978713724 
0.066959451887976780 
-0.021792882550999676 
-0.12118560480739629 
0.0016117794350097520 
0.011704790263566177 
0.013631779231636876 
-0.10275604152430258 
-0.023028558099120850 
-0.0063474454273988990 
-0.073681313761967200 
-0.032951707829697970 
0.038518118347010924 
0.012992143872460487 
-0.27714684601072010 
-0.062193022477882394 
-0.041436476538033580 
0.073685603414863090 
-0.088249085364291280 
0.16365219174653328 
-0.010783294248364217 
-0.15634041303701307 
-0.066637110473551920 
-0.070750067169211000 
0.063320892960887650 
0.062099266558128010 
0.032953513236960420 
0.049425255924586310 
0.024389190482131680 
0.00032571727447273590 
-0.0037672261239548920 
0.10877071674502786 
-0.0050104519989336805 
0.043388581982582260 
0.018462535291658005 
-0.016117440566992308 
-0.084333739809390750 
0.022774191864330648 
-0.039540380980072500 
-0.014422101914720136 
-0.14342547912563816 
0.010141116147718194 
0.021326797195682590 
-0.025897643459738730 
0.034525140165775924 
0.011957753726408091 
0.10051850972219473 
0.029546519421685830 
0.070650209376181130 
0.24507362537796917 
0.037428442042501520 
-0.060994947589596160 
-0.030000960051925426 
-0.024341030097475572 
0.0070809095286648565 
0.047648640591970900 
-0.070489911947666850 
-0.14624360800225955 
-0.013816485510339599 
-0.046865192071390345 
-0.015083726132298650 
-0.13676682903180910 
-0.12130181032061768 
0.068545863726410920 
0.013463216966738929 
0.035594691136428640 
-0.060098100610378250 
0.0019204695711968012 
-0.037389276745020315 
-0.042103375239523164 
-0.020167990406531455 
-0.18418292203945125 
0.030968507370164582 
-0.038533290278823100 
0.21228493793229025 
-0.089256779064189020 
-0.16589796341313526 
-0.12400269934898964 
-0.051140171583370905 
-0.0083314443088526590 
0.018461174915836924 
0.082736364271248040 
0.069682269130299500 
0.064917991159771050 
-0.039702338274988785 
0.056605794053381300 
0.035058171137836000 
-0.052544330340750636 
-0.0090001165244117980 
0.046002196740911320 
-0.099597032535270790 
0.034673567391201800 
-0.024064857633414220 
-0.056757514055451990 
-0.024850544808119490 
0.032795747337131060 
0.0049463020912116785 
0.088173374193273120 
0.035536256255963390 
-0.098902761761254510 
0.00060624147035799080 
-0.0020404488673584588 
-0.043174189138240046 
0.094211761243169680 
-0.096743817797782850 
-0.041433850651270226 
-0.18409264704340755 
-0.15649069906925298 
0.12149870822376532 
0.060005136702493440 
-0.0062609637665047520 
0.028123014697128430 
-0.030059011987915184 
0.16361308008933265 
-0.15081174818140877 
0 
0.053505723522019360 
0.10712988612711467 
-0.069740869964289940 
-0.035922312031635345 
0.043628291330419980 
0.0054854371006699320 
0.079414490072092280 
0.089227984368241990 
-0.026704305396062836 
0.041667162216677840 
0.017609877866851743 
-0.040105289108083160 
0.12748074427579592 
-0.048275570123022166 
-0.059905347302267350 
0.078334928068221570 
0.018073711910375895 
0.010099639788748815 
0.019934949778291255 
-0.016947431212373482 
-0.0065385137141910750 
0.098935298151323280 
-0.040163091493946805 
-0.031696397839661500 
-0.041583249468503884 
-0.058936240554647800 
-0.034159158771028150 
0.0098593398887819750 
-0.062645496807801300 
-0.020942478104721947 
0.094794995058982600 
0.081909598545692570 
0.023435352042178375 
-0.13869885891519437 
-0.022762459515644845 
0.053848735728890210 
0.032234038978571950 
0.011711948744041864 
-0.032086116585180145 
-0.0011866151569541732 
-0.090123672006157840 
0.087170525335439410 
-0.0032263350619823536 
0.079447987130164650 
-0.033181067060954130 
0.025931842580070266 
-0.026991537090486413 
0.053017771049972996 
-0.0060314130433587850 
0.024447271823758197 
-0.075050006045643600 
-0.049256503715380824 
-0.12758731324846245 
-0.037317702707051580 
0.0012368982609052984 
0.016775719845784160 
-0.012668645754779297 
-0.039761568119093205 
0.087410062955987630 
0.045287214458663660 
0.035831320514098285 
-0.0058092019392316650 
-0.038932762469468280 
-0.021986469262215185 
0.015241436180142093 
0.020399023560385143 
0.057002594539333186 
0.11161660933317630 
0.057908993704417670 
0.040608157267694910 
-0.074058526743942930 
-0.045362185334775380 
-0.019567344398718427 
-0.079939822641174970 
0.0091428581236127830 
0.052699003996684410 
0.010234028510386838 
0.041128644261029960 
0.021739718297057100 
-0.016635797399458320 
-0.0018116801230076513 
0.046653452307792484 
0.0085808897475883000 
-0.17841347551865203 
-0.044035289743183120 
-0.035072062659485946 
0.12130293151133947 
0.061766697852657260 
0.090727840238100020 
0.12439205336025197 
0.048379227003686374 
-0.15034295405385212 
-0.0027101200175416043 
0.081473686980146910 
-0.072351862847606420 
0.055298193186203784 
0.0074137180492716100 
0.065004136273216690 
0.094300449375089070 
0.00058103037572254060 
0.047988960557069820 
-0.033657634571163470 
-0.053847603891518860 
-0.17720117359781112 
0.063373955844194640 
0.0098767879610753800 
-0.11406577545196556 
-0.042127351504435216 
0.065429657108021650 
-0.014086331342078297 
-0.018543659146367845 
-0.053245973212788206 
0.023409089563636630 
-0.29821827002018290 
-0.13402503143152592 
0.10957763035590360 
-0.011899860351973660 
0.0017803801821864272 
0.018392847030533448 
-0.040548537335002560 
-0.075053435777229980 
-0.020074644641455926 
0.024836624088833110 
0.094035076385990370 
-0.041837242071119926 
0.031088398047532544 
0.18270069324388560 
0.047925793726944874 
-0.016127299403794405 
-0.030694635225476600 
0.039165810455510680 
0.062939942941235210 
-0.015525901028694784 
-0.017902985227639567 
0.033469791446315546 
0.052893642293354910 
0.025855534393777460 
-0.048109806846681330 
-0.046113052622484475 
-0.011030677794298789 
0.094397178833798650 
-0.018380438031844422 
0.034605836056794380 
0.0053309897310093480 
-0.014263644336737654 
-0.065085416465444760 
-0.22744992874444342 
0.050602676989541010 
0.024492795718720102 
0.021238769276892220 
0.046346076386063960 
-0.085856058375647540 
0.063544532773229470 
-0.031810266231913670 
-0.039811127421543210 
0.10250823010051893 
-0.0072867584809955050 
-0.00059331884398285000 
0.033346807014559526 
0.019242725761735340 
-0.029892226344319660 
0.056331811589573550 
-0.036238896384606055 
-0.027055546874002103 
0.0090686229845873040 
0 
-0.035748954196378680 
-0.095252395355571130 
-0.0054682585041283640 
0.025200741815389185 
-0.0027154683887719317 
0 
0.013493212530254116 
0.034986713028562830 
-0.040020141474601140 
-0.0060302327057112240 
0 
0.013584389222445124 
-0.065941334679377280 
-0.0017106216728197399 
-0.022773565351160750 
0.070429158608368710 
-0.041330535988400210 
-0.010437323365973748 
-0.018389182355646783 
0.024009628925734855 
-0.016511065156725027 
0.026123363617190520 
0.011880189871505340 
0.026120404036067980 
-0.017160572054713380 
0.0087107034361208150 
0.0085212254130063480 
0.024176384561516090 
0.044273844654278070 
-0.076695717249799820 
-0.0096059198873179210 
-0.0073489067951750245 
-0.0011477358515816515 
-0.079533004299058570 
0.036906572012676296 
-0.075185116307195830 
-0.076854085812110310 
-0.081372669686429850 
0.033544821079496884 
-0.13357448419760087 
-0.11454791900272798 
-0.016128040423522744 
0.015652853819446342 
0.11207799325138874 
-0.27134573462462760 
0.033641244981973475 
0.094345626588096450 
-0.0084738358106168640 
-0.15832481826884134 
-0.10290804362345057 
0.032075625490762310 
-0.040233045917069470 
-0.073587384718717840 
-0.015901743070201434 
-0.11752704391594570 
-0.038753064323680430 
-0.052288498923636720 
-0.045169530335657090 
0.028779870917855000 
-0.026226252690208965 
0.010868202278936928 
-0.095922254626864990 
0.027445483686703822 
-0.058741912946240900 
-0.062169408386817610 
0.0057038296089995780 
-3.8328501025177880e-05 
0.019691193946883340 
-0.056419213193435150 
-0.039209342334620735 
-0.046068966199336540 
0.0026374210057375637 
-0.11806839800861009 
-0.0067453149034480010 
-0.066767506274384460 
-0.048605557167999094 
-0.088096544232112980 
-0.094475680882691200 
-0.015426800417079818 
-0.059741756173208230 
-0.051262317901275010 
-0.0038663672205275796 
0.10738814766144845 
0.022862420733602666 
-0.0077828873987442000 
0.060213275677332400 
-0.038445053271990194 
0.011953554283329438 
-0.022751422173134854 
0.00044513167230036954 
-0.16942521941621790 
-0.077313894322083230 
-0.10363209821417967 
-0.088542458085916560 
-0.11535532133877630 
-0.12121472247830170 
-0.013211327670362207 
0.028436269309008437 
-0.016889568323552852 
0.13240599481191906 
-0.18125627099792240 
0.28985956923499256 
-0.043777835235753250 
-0.22356543624623480 
0.15671638600223860 
-0.075440649582079410 
0.022526566033496842 
-0.22206307018117455 
-0.033165637961848990 
0.062752834549561280 
-0.12760592991940958 
0.073458676238996550 
0.027407055238161000 
-0.018660333961686107 
-0.10445368471380483 
-0.033574262494656455 
0.042167563650303476 
-0.19506207944301218 
-0.070443060119853020 
-0.015289183177196337 
0.032368019458863660 
0.16859689554939820 
0.014848948588355112 
-0.18877045562554956 
